-0.105377895293
0.129313723227
-0.138075157455
0.111706727526
0.306899574996
0.0161979428292
-0.0200100515901
-0.143879818689
0.0215486761805
0.253986079541
0.0777917564605
-0.016321623909
-0.133027410822
0.276492604373
-0.0852332674082
0.143098277258
-0.0952838066304
-0.126989459682
-0.149932725193
-0.23588738775
-0.0114944763301
-0.0761907578821
-0.0880389230571
-0.266587343716
-0.0701185110609
-0.293142462312
-0.104561411894
0.0863916499011
0.213134448655
-0.151726053381
0.119064018426
-0.159099334569
-0.0732905491809
-0.225877699419
-0.261816811715
0.193467838199
0.0567191919713
0.0783998491354
0.220253004717
0.30426635267
-0.309975386424
-0.0603498877676
0.0355962775504
-0.051083091407
-0.186570522985
0.0164375397755
-0.251285039317
-0.0594960567476
0.162733715368
-0.295430636058
0.023169343585
0.206002744756
0.188239113263
0.0189047257192
0.169736687793
0.215866839845
0.0796799793751
0.0124985152115
-0.11888033151
-0.212490955696
-0.0614869447546
0.193443946141
-0.24192625011
-0.0627624183767
-0.0905107543223
0.256492797551
0.31145235879
-0.249937137109
-0.239569081691
0.14191245897
0.287850045348
0.163963155946
0.0235175115611
0.0937672516163
-0.133289861401
-0.0913770690115
-0.241160182127
-0.287484452552
0.0958786257094
0.259849396453
-0.227304366758
0.0409728350257
-0.208247332013
-0.00666457347691
0.279486162496
-0.0810447577567
0.0073025562281
-0.0479449696263
0.173169217853
0.0959484136484
0.234058782667
0.0367117156382
-0.175906096555
0.105276476652
-0.229448578841
-0.144217259444
-0.254995593406
0.197207960611
-0.132591632576
-0.286819552952
0.00945963992078
0.122655941506
0.0485634374149
-0.312084322567
-0.0525690520695
9.40684879719e-05
-0.0792488478158
0.276921343846
-0.0777533814593
-0.201765048621
0.193275811224
0.277977506791
0.177662361951
-0.27762754238
-0.175050168242
0.0910760183659
-0.0146937557835
-0.063317921591
-0.296625461012
0.193161946651
0.0268899014355
-0.0196840419415
0.22286304669
-0.0266709248887
-0.27222942273
-0.0184907889281
-0.0836845444144
0.0375453544606
0.199001634738
-0.029071545132
-0.205707589972
-0.234186690479
0.0567096364322
0.280025246556
-0.19717601984
-0.0294220365646
-0.0816452430642
-0.270361317595
0.297700667195
0.0663761354199
0.265140659039
0.100406250218
-0.117197627581
-0.11931146538
-0.177716853539
0.269826389706
0.209382585649
0.204803564431
0.296170306934
0.0152074865878
0.209811176208
-0.17893205988
-0.296305094244
0.158683969073
-0.17877909
-0.0771706900941
-0.195332089585
-0.166784765507
-0.201121842143
-0.263404492454
-0.195250901157
-0.179842768064
-0.303800367551
-0.170634343745
0.305680429452
0.0196928230659
-0.133356167128
0.149074893229
-0.116151478119
0.155432905059
0.164899996569
0.0815074173259
-0.199363458928
-0.0252642943505
-0.200732603602
0.0704067806218
-0.034016439906
0.273704120712
0.299242185949
0.227465082894
-0.0235681704697
-0.265253171563
-0.144039126887
-0.260926195469
0.264997985754
-0.1528349603
-0.0679074139711
-0.310967911395
0.0691499887889
-0.0198856645871
0.0664557333729
-0.210202082654
-0.191016965603
-0.309874527574
-0.109714946962
-0.251549083376
-0.0757826393309
0.0291685635411
-0.259276523059
-0.217960934823
-0.150559923417
0.0981845199517
0.214789995179
0.283765800055
-0.254979282847
0.141064540028
-0.110768261311
0.138146632735
0.274264640403
0.0199981793124
-0.196460414669
0.231620130283
-0.0317823398798
-0.031856448088
-0.0306252128089
0.153407206466
0.233218763756
0.143669547652
0.301652957255
0.0538417212562
-0.198833496447
0.278780566055
0.187440637386
-0.185771863792
0.0718537284393
0.0914483326783
-0.105036729715
-0.254500523073
-0.241526960935
-0.214759184643
0.201457472821
-0.269536098547
-0.261103484505
-0.165866074562
0.0625549130806
0.021464585559
-0.215530967328
0.0244238824306
0.284224871358
-0.248538025524
0.250209851013
0.278231548848
0.299169157053
0.172948761054
0.109068707768
-0.0354650571067
0.112454048094
0.134485380981
-0.075204832395
-0.110261305065
0.302832594017
0.261936406041
0.305155303667
0.0506738674674
-0.0966940536916
0.124202368366
-0.284967332159
-0.109288151359
0.296362284745
0.198728188193
0.134183101647
0.198857878203
-0.164119572587
-0.00973333458683
-0.210633668416
0.145122104542
0.216003443467
0.0345385650616
-0.0250138341479
0.0393958278211
0.140084214675
-0.266738212898
-0.136368919796
-0.179955245121
-0.0419839419906
0.0362639973764
-0.0273280472758
-0.0170391889037
0.285486459818
-0.0139966673684
0.303699059399
-0.30293482411
-0.222450211684
-0.10571336388
0.120532661518
-0.131553485145
0.18159812677
0.306058452777
0.22810057142
0.23419149491
-0.169242531478
0.256138717028
0.261448442824
-0.0727377923513
0.230817597228
0.0895382492324
-0.240421109105
-0.105178865682
0.296686750341
-0.251323617015
0.175776906937
-0.00236374503285
0.0239321350929
0.226308560729
-0.216715010419
-0.0482605936738
-0.307361301981
-0.197074419536
-0.0665837678048
-0.0389398484325
-0.132522751973
0.105616653118
-0.0829312840495
0.0163874317889
-0.276411673952
0.201153877982
-0.29518826434
0.282874402262
-0.15774506489
0.0527964267293
0.00525528122579
0.0299137855211
0.102931380617
0.258865895763
-0.137708452936
-0.239347134917
0.111813411173
0.13109365255
-0.258620193844
-0.19809019659
0.221045735404
0.258391215607
0.308586503499
-0.0276978481645
-0.0333839711152
-0.110897302552
-0.0282811474189
0.0636041499184
-0.159578554255
0.231361953176
0.205633586562
0.20845191868
-0.0470968976572
-0.00407918777376
0.209041213895
-0.149628601641
0.107503916916
0.24930392113
0.0650049852641
-138.693416869
0.179569819862
-0.214809461369
-0.169790279907
0.0959521045942
-0.0699472633126
-0.182002266675
-0.26689212994
0.205804782147
-0.114170544013
-198.470179376
-0.0104155677227
0.226744151543
-0.285257790785
-0.0996874636358
-0.122508647588
-0.295511011059
0.158107228728
-0.30096181959
-0.218188118574
0.17334933338
0.0498193967621
-0.302769528449
0.223647571558
-0.251742226935
-0.0832347391574
-0.220572058482
0.165706704975
-0.26425717759
-0.225813649296
-0.112692266076
-0.314078503151
-0.138225275476
0.0244198359193
-0.192537436908
0.0387364502865
0.19315905434
-0.315157042839
0.200936942213
-0.0366661702385
-0.149502754414
-0.195942158749
-0.305362344677
-0.130758882563
0.0612427932568
0.150226752427
0.203013133318
0.161330328083
-0.202350752102
0.0707187781322
22.0594282031
0.0597653296349
0.0279146556328
-0.130934864413
-0.29290055325
0.217839557778
-0.0586358023547
-0.108017643658
0.288870067983
0.0739427891489
51.6430368195
0.142689305943
0.128795606675
-0.271928136937
-0.262603523965
0.267397914039
0.108918237482
0.312592123248
-0.21884732534
-0.0160205880746
25.6752798818
-0.201131281553
0.267985783103
-0.210128245623
0.189283124438
-0.037630780848
0.217820919419
0.0383637843325
-0.03597707876
0.069492977412
2.95934417487
0.180746982807
-0.238924360058
0.0953199054686
-0.179971233474
-0.297665367187
-0.000553124815969
-0.182419384114
0.183426920286
-0.3146311156
-0.272579909944
0.253990168249
-0.263225128485
-0.159273974459
-0.0706437623543
-0.0511853946653
0.313539891647
-0.183294063315
0.207064483677
-0.217857385566
-0.183277826358
0.264717892833
0.187008573254
-0.0746583189051
0.24587553775
-0.00443815041913
-0.0405529794557
-0.151527806639
0.0168250329583
-0.146985939995
-0.110914656827
-0.303167352962
-0.0593188591464
-0.203026904157
0.128095355422
0.0284467495493
-0.209297341561
0.206665073564
-0.051345684954
0.202025280482
0.286444190003
0.150321768838
-0.103745930408
-0.161982570117
-0.228533114355
0.253340963732
0.236352300144
-0.283242317958
0.118730384494
0.0878869080539
3.25138438236
-0.187926276872
0.1326984445
0.221185399776
0.0349822704986
-0.120989300346
0.253489684523
-0.314289470034
0.156171757563
0.0224068063351
-27.9403428419
-0.149635031085
0.158378754671
-0.177349504155
0.202543076383
0.268861253235
-0.251667984841
0.144900571102
-0.205279812893
0.267492457614
-392.561435477
0.00487161337126
-0.184639837487
0.165944913316
0.152983220056
0.250763220435
-0.0382453400617
0.00529401476994
-0.0764900001005
0.192701119478
-176.458003713
-0.281069227473
0.0498227100008
0.251776484357
-0.124404904613
0.00790929994104
0.135502089961
0.178186513973
-0.21967081734
-0.288037372203
-0.0841445387235
0.0232183826034
-0.0438167332124
-0.0523351561258
-0.140111901101
0.261096314379
-0.237180240503
0.0246471281897
0.0567539700265
0.263399035113
0.0620257671584
-0.101053934016
0.0964988089582
0.22715748247
-0.10482313204
-0.245229862531
-0.198621467471
0.0917475625104
0.303444549511
0.0428347999635
0.0450335846595
-0.301877930819
0.153013361721
0.287845875356
-0.121213169337
0.212933160961
-0.294529552027
0.20856831573
0.185603835974
-0.0769785552755
0.299721168978
-0.168267503952
-0.096430905991
-0.206497274702
-0.245308933757
-0.157952286778
-0.178374718949
0.247013217379
-0.249771318245
-0.198166664409
0.282087051272
-0.222505161481
-0.19513220912
-0.194627350816
0.281044286858
0.278628138542
0.193263234513
-0.264708607983
-0.0850009264188
0.166011509424
0.134397144317
0.258331151674
0.0359576396169
0.134133181592
0.164923748143
-0.305127258901
-0.292512064415
0.194727191068
-0.17746251081
-0.225227525066
-0.206106685946
-0.08930168495
-0.187235928465
0.217901730787
0.128520455171
-0.124446058235
0.196415263943
-0.295360340905
0.174878748343
0.233519163921
-0.162233767037
0.202540225043
0.0960380099957
-0.225501557388
0.217271183537
0.28711510699
0.0608361328456
0.0507364476852
-0.31482498248
-0.291836681582
-0.130646247367
0.0383267187171
0.00738077272976
-0.0551707727289
0.21762606644
-0.252381264938
0.0806241283525
0.232356210324
0.0748336269385
-0.274904339649
-0.310282545986
0.158151120531
-0.260075195875
-0.315189810209
0.180184114827
0.129863078211
0.292390543767
0.137402769811
0.00183550854815
0.0264446256413
-0.150494874359
-0.0534557986049
0.175666302222
-0.111733399602
0.202047572234
0.140032369915
-0.309739319403
0.311794643004
-0.0392987073093
0.113702937804
-57.309072328
-0.0342254989901
0.230793852363
0.27348728144
-0.275968572267
0.0747484485978
0.0141003117429
0.0747323661878
0.307637459709
0.057677662645
-370.884975134
0.179782649714
0.0445013475863
0.00672639035863
0.153364947388
0.0198818970542
-0.200297448666
-0.164093272408
-0.312964565199
0.316208923489
-318.381151487
-0.0925992896963
-0.196405343771
-0.115248878086
-0.129437343268
-0.261500424838
-0.0500409240507
0.0223602623874
0.0104139858998
0.142392567617
-118.542400817
0.0822007068538
0.182987853035
-0.00933350751269
-0.309951613225
0.221124443745
0.164649181521
-0.179712765734
-0.101989544391
-0.097193619028
138.931047352
-0.217018978856
0.148608206736
0.285512310576
-0.284547941429
0.197099924369
-0.0618964267473
-0.0410053097455
-0.28181885802
-0.175758441426
1828.68077139
0.252637279361
0.313105069314
0.0175965562583
-0.238377123316
0.200791537046
0.153056428587
0.216551307583
-0.0105331631203
-0.148730848837
3484.49911556
0.184514158624
0.23535132395
0.226607684366
-0.239881870274
0.138948268536
0.291275052973
-0.254401377272
-0.257147991379
-0.090179502213
6978.42184262
0.290168821427
-0.309197406307
0.165574215363
-0.305505211826
-0.168125143644
0.0691233748821
-0.0338775494599
0.152589054338
-0.288098462501
9980.54820833
0.208465477257
0.0126494188694
-0.0433058034131
-0.304719871439
-0.0979151368615
0.091953379334
-0.187541419696
-0.105942637211
0.27151511011
9409.54559471
0.096892652429
-0.167083424805
0.172538385103
0.250399366064
0.121753414519
0.0300226156474
-0.152649728878
-0.304118607989
-0.117579865042
5233.56985862
0.253352354092
-0.262022986546
-0.196840768122
0.0889436966812
-0.219088957198
0.154095295818
0.252187757759
0.0254436716517
0.227983255117
2091.86942635
0.155884342993
0.139676826869
-0.0512590253784
-0.197630258788
0.0317575894381
-0.0324530558751
0.27937634373
0.00645056668471
0.307165748886
-1067.18157681
0.020924232513
-0.247312236884
-0.0701261546698
-0.0564523756481
0.230327805978
-0.303733619938
-0.163347490578
-0.140164975415
0.181613250082
-1950.03414411
0.0903632109715
-0.0431769780014
-0.00562243893927
0.121876522247
0.275584225192
0.0169380825107
-0.0159097619225
-0.31482814374
0.309417285988
667.254763858
-0.185003089885
0.243702556729
-0.0468844392634
-0.0665526081864
-0.168147458257
0.0321337642464
0.0964788744668
-0.293486754603
-0.209015536275
801.375812368
0.122587005811
-0.263657058967
-0.0448276835144
0.069043066809
0.118548648187
0.173445172543
-0.228023699011
-0.243290093843
-0.0809588308653
-207.918217799
-0.140334247692
-0.117625700268
-0.132059540138
-0.0941118181357
0.0656168647064
0.136308549181
0.283683778126
-0.183854606234
-0.0692593616408
-6.12869618513
-0.0664684422563
0.273600103587
0.169589388806
-0.139289049105
-0.265388734521
-0.010084628367
-0.0436427391389
0.313557129715
-0.0655113125716
-0.0315670070376
0.0429828826617
0.124950385371
-0.0196079756417
-0.144525244057
0.145150871147
-0.314360163149
0.0276789308494
0.0639692513309
-0.260151201805
0.209078950056
-0.0888658161001
-0.278506941394
-0.0563935214257
-0.277086267625
-0.0221013064971
-0.157977982446
-0.245046412294
-0.273305122071
-0.027975545529
0.277004786962
0.192525944644
-0.271558927057
0.0853294628698
-0.19237649498
-0.211750332719
-0.281140919143
-0.296044074197
0.116147468127
-0.0332988026106
-0.102514283832
0.204780677978
-0.0521923366689
-0.195253276989
0.14725526327
0.281971287899
-0.253248671002
-0.236714541666
0.102119428099
-0.244916260286
-0.30815864605
-0.13977308151
-0.042509501378
0.0548991682249
-0.240362609182
-0.283364369255
0.0135759463983
0.0281522428941
-0.188947184238
0.0628380811898
-0.186963726741
-0.0553905038427
-0.244038414909
0.0994751310323
0.0889197422451
-0.140464942868
-0.262731952584
-0.204449761869
0.100014645701
-0.189719472717
0.201746672906
0.109014981658
-0.275089081082
0.138349328132
-0.0802745520607
0.176452955732
0.186891165706
0.144378105692
-0.268134819223
0.0135447987574
-0.305511312074
-0.0797869946827
0.0739299207706
-0.147157701142
0.0277476263961
-0.261904835868
0.0821983152387
-0.0844612225957
0.174135964961
0.0585721568445
-0.172797422462
0.0111401182476
-0.141104455945
0.0231411811712
0.106026664338
0.209049721341
0.304505996367
0.258730672413
-0.264198679849
-0.0434582700466
3.41537484762
-0.0583542524806
-0.250181472679
0.165611992264
-0.259081280688
-0.159640117645
0.11888714769
0.0297346186096
0.0386606226169
0.273885593742
-31.5093860145
-0.126440046685
0.0174027764277
-0.0800769497733
0.153823686561
0.239276572481
0.157207159064
0.20015747013
-0.0144887544554
0.126377869089
-395.540875199
-0.0643465120277
0.0282215034673
-0.218635346814
0.173409501932
-0.228358103526
0.00600648685436
0.0290872240039
-0.224196512334
0.0960515461725
-284.362586502
-0.149361773344
-0.0156795846647
0.274848887559
-0.22405443597
0.0853333885962
0.194270338782
-0.0116066977884
-0.239653268683
0.169445398021
-404.622443113
-0.0202029633601
-0.105608355239
-0.276427897331
0.244465648505
0.209351347887
0.093279210459
0.304184391495
-0.28220149564
-0.269494703069
-411.884156455
0.118251254562
-0.150924511254
0.274516632055
0.010807149772
0.23607834826
0.269080861619
0.0676745534143
-0.113709334691
0.277172854948
6546.46549745
0.311492724715
-0.122381311177
-0.245335598132
0.0187131215972
-0.243028966969
0.0622318024716
-0.177692055823
-0.0809670821999
-0.195249912174
11089.9773
-0.31078720243
0.00470114939969
0.136549725258
-0.0512463190687
0.188536066854
0.158416955292
-0.217032180748
-0.292934358131
-0.105466953185
15700.970615
-0.212049049871
0.269277128633
-0.309368918404
-0.0562911324152
-0.0719489162222
0.190332898074
-0.072130666473
-0.22609212042
-0.0315925913191
13932.3336432
0.135482988988
0.0402126558932
0.239521133297
0.00452200509253
-0.0275238033023
0.270179189087
0.299401805905
-0.0166381246952
-0.143978072749
13815.5779713
0.0777739897537
0.121841097213
-0.0778867265714
0.118230280686
0.313611805505
-0.0204018292508
0.274613761832
0.0217262294765
-0.287604380908
9867.59920056
0.220440338907
-0.131510328236
0.195222792822
0.100361923991
0.0539312513006
-0.245597748802
0.2964738512
0.302915113603
0.294081067095
7682.8797555
-0.119329274548
0.0957056563398
-0.0333963482081
0.0232866883728
0.0242154467421
0.209655873363
0.173543756103
-0.111524949508
-0.0651918252411
2413.5966362
0.228386623359
-0.251679720666
-0.276756297966
-0.0793024817977
-0.171529377909
0.0471375232967
-0.250325783825
0.0546505990162
-0.292864284378
-1831.40893252
-0.310812618718
0.240311223482
0.258082541487
0.0165722693752
-0.161017417582
-0.0747250504085
0.133783885435
-0.269276673072
0.30148109078
-1173.38261616
0.30919759299
-0.0472859826274
-0.215589506843
0.30118841151
0.312302633888
0.0594068246006
-0.310598494366
-0.100387222381
0.293447656868
-1634.80525707
0.23158493503
0.205953732329
0.129782281428
-0.284805205641
0.0156402749827
0.154541227099
-0.275843979984
-0.273089725945
0.0536224266402
-629.714081484
0.14783718831
0.145850665017
0.159508163426
0.214609873741
0.188622042284
0.222788496736
0.0793553712283
-0.28057358937
0.229050574823
-15.4750927322
-0.186422861758
-0.217854260515
0.221548401583
0.0897255076269
0.189627093255
0.0565947807394
-0.314565445136
-0.239669091726
0.013162238688
0.139039010392
-0.254855089333
0.11897846568
0.198635338669
0.250694705673
0.230867772472
0.0903240323331
-0.197059516691
0.0619605850429
-0.0603928291034
0.0956719061586
0.196580580385
0.198469650357
0.268672283773
-0.244211965644
-0.17208563659
0.239015876262
-0.199087020951
0.173256388828
-0.30168223455
-0.177084542868
-0.248554918224
-0.0187544732154
0.0366890412861
-0.126632477088
0.0509135930547
0.0969750324231
0.0949536702877
-0.117467994317
0.142635539479
-0.00266635696575
0.0616359253719
-0.0327001913576
-0.046546155055
-0.0832031014704
0.0349752866696
0.239223352683
0.0655137421364
0.176395033898
-0.241125892568
0.126079279993
0.255386397461
0.311024206361
0.01995857518
0.196761272912
-0.265629096897
0.152681976372
0.264091299438
-0.00260841318013
0.129267933003
0.267093341343
-0.303153561356
0.227131266838
0.172559930437
0.307830948344
0.203246135126
0.179140995717
-0.189286772739
-0.0417187809516
-0.207699036349
0.171759411387
0.2541533761
0.30288502548
-0.310661755978
-0.311990208579
0.201257145432
-0.11791483788
0.28388832545
0.0177340716594
-0.172671791187
-0.290086100261
0.0468299329343
-0.102723888778
-0.191556172954
0.154239434749
0.247332287792
-0.0495528892544
-0.238230436194
-0.114932010232
-0.0160733041649
12.1875297083
-0.00338267373423
0.20206514396
0.0885507040549
-0.259373371272
-0.307023799394
0.0343164501041
0.126760432484
-0.247163133278
0.216411583071
151.983380314
0.1657292363
-0.246256058121
0.315900786947
0.191365936483
-0.123045715426
-0.212159224387
-0.22459319409
-0.0981445713733
-0.288212499699
753.181597026
0.0720122266055
-0.269667553831
0.229229273988
-0.251591111493
0.24027625242
-0.149332560622
0.0822210947767
-0.307087572903
-0.228794051455
1129.30282525
-0.127284926498
-0.208968292286
0.305999335785
0.154752995363
-0.133812563669
0.0218599529101
-0.138063655341
0.261378268012
-0.26519149014
3449.4121749
0.178075621859
0.0308117186365
0.157170561257
-0.0736880183147
0.284220876088
0.169631404994
0.297756417559
0.13406849535
0.0158497250402
1677.58056517
-0.0389814682034
0.0113351867067
-0.299736308027
0.224385483743
0.0583586923398
0.0613241362536
0.089544385809
0.0853510755021
0.161017056301
3603.37891152
0.0896380991413
0.184359039475
-0.0978497438628
0.267768078348
0.220870220087
0.106483300989
0.262781629255
-0.0119255236738
0.235891603846
19315.6854165
0.0551160158795
-0.24258153747
-0.18092077205
0.10620605615
0.0326901752231
-0.260582662667
0.0294167691847
0.282844843519
0.0186850751658
35609.6029172
-0.0268088621033
-0.0903164763922
0.0669966370398
-0.0394198229667
0.134264268509
-0.245033738234
-0.268223063286
-0.0803712374236
-0.0851265630627
33932.566529
0.0388510431252
-0.249350905046
0.26784133929
0.0241468054821
-0.312571923859
0.0770921190363
-0.0696427952904
0.039248948303
-0.144980254281
23279.4688454
0.00740895518724
0.0863678252481
0.0383225853758
-0.0109395603129
0.119198922662
-0.0860205138778
-0.163652922129
-0.0383895326614
-0.0486815673596
17913.2275573
-0.0854609384193
0.217883299837
-0.0762984036301
0.00827563983526
0.20189696589
-0.0664510548672
-0.238878077369
0.256018100556
-0.293866353426
11130.4960015
-0.0699622479202
0.119090057133
-0.1998940614
0.0764495868648
-0.126310076501
-0.281043826882
-0.182992263728
0.038530878301
0.0243627091682
418.1246721
-0.302727683471
-0.0683057605713
0.137113356591
0.0170678205735
-0.173310770127
-0.234949370169
-0.0585727941463
0.159049113831
-0.0584463186828
1009.9153907
-0.0324026337779
0.156407825504
-0.239314939737
-0.0230794830748
0.162577478667
0.0214329633741
-0.24640071513
0.0217299318633
-0.0223890210315
1260.28149002
-0.0545202760957
0.226020096624
0.00823843604764
0.305075939897
0.0770733675764
-0.0439789305648
-0.218177610032
0.0857763426811
0.0816989870462
758.305334378
-0.266087370282
-0.0152525777549
-0.17908622804
-0.0299824174063
0.14636184484
-0.175074145308
-0.03227479098
-0.304915511593
-0.206301371258
4873.906889
0.0366268900844
-0.0802954838392
0.285827359655
-0.127786019823
-0.135587550267
-0.126020329528
0.0124077000332
0.169806464493
-0.146982378031
3675.70813005
-0.18772992843
0.0493887581821
-0.1962475502
0.0429885772931
-0.0866178587498
0.0770531612279
0.000466367559127
-0.199841978612
0.217948662706
52.202498098
-0.0989278772004
0.0386264683365
-0.254371422395
0.298479742807
-0.122474373501
-0.043904777475
-0.203442399515
-0.0286743394885
-0.0401499329997
-234.618821416
-0.0520126618523
-0.133008341542
0.292346091685
0.277943706857
0.154682954177
0.262108472341
0.253180650327
0.156103031067
-0.166537177656
-31.6721408219
-0.311099345351
0.0567285802459
-0.0340470333197
-0.0122690366212
-0.0599277260788
-0.195481316109
-0.230508137844
-0.0136370243595
0.123292204765
0.0171313537754
-0.200410260372
-0.122647540028
-0.0238704369484
-0.0744985711196
-0.0957796175814
0.0493492168601
0.311280175059
0.138555276526
-0.116109971455
0.253013079456
0.300662916012
0.0587628311703
-0.255514299622
-0.195260076873
0.278687293359
0.306948992995
0.285037023211
-0.220462068886
-0.0296016312351
-0.114006132457
0.207980814537
0.191052052826
0.0604299314659
-0.291447007415
0.156385975973
0.0296403361185
-0.199021761268
0.0649344465961
0.240935683764
-0.00594191948774
0.199285093915
0.0897266551185
-0.145517331049
0.0418625581796
-0.134084314556
0.105517812418
0.267400194049
-0.265743140449
0.0174153380656
171.929738983
-0.228711499969
-0.156388344652
-0.0888841084415
0.283203333098
0.0287160215337
0.253135740713
-0.107080253918
-0.103885370421
0.315493566566
107.453317697
-0.177685514771
-0.0183510089781
0.204505861307
0.14086955918
0.211665346261
-0.279727823409
-0.29429213532
0.251517535341
-0.147455199378
79.659563608
0.176365869925
0.0491971705973
0.121551657376
0.276475309748
-0.269268476695
0.217531082654
0.315541344435
-0.0418483623111
-0.122628826072
146.855910221
0.0831016151093
-0.0700561166203
-0.090940495275
0.201395915614
0.242508215636
0.178554511671
0.163311407149
-0.0291023832813
0.0278548016429
436.064216499
-0.0399949293841
0.0709623735682
-0.135328156738
-0.241378868583
-0.0360187436416
0.0555589919245
-0.235556583334
-0.310222214801
-0.1420005622
3686.70063278
-0.0609280846618
0.121576798357
-0.120358109799
-0.000907071358244
-0.142671880794
0.0206046597258
-0.0244567390371
-0.253928566506
-0.193476328497
9103.26288254
-0.294046264622
0.138890677355
-0.0628583997533
-0.0618109302481
0.0521144360987
-0.0961258211917
-0.265022297338
-0.118430995701
0.00513788121236
8997.46478795
0.105154753612
-0.239877178124
-0.0529982733052
-0.220194955263
-0.00981760086338
-0.301138850813
-0.29496992929
0.108756392662
0.0266242079062
17082.1123058
-0.275879621459
0.017241471049
-0.28015020074
0.208730170556
0.131940491101
-0.231383790931
0.014637302079
-0.0353962804485
-0.31269652132
29609.8293146
-0.301668273143
-0.198544891154
-0.315223890824
0.0732110777865
-0.178366530202
0.18639910448
0.229307682583
0.241828593085
0.0427193684406
47617.9683441
0.283633492944
0.0452986774452
-0.217639872341
-0.156928679792
0.191658463321
-0.280743589116
-0.0457674182551
0.224314188083
0.124495451437
36625.0008203
-0.0650030744434
0.118882723652
0.212209146472
-0.224769757446
0.229263985297
-0.287942654847
0.241827018302
0.244285322984
-0.215575990608
4784.21513633
-0.174058278636
0.289659410151
0.268523854565
0.0928602164454
-0.0414255384905
0.120175772841
-0.0929323106991
0.0175899293522
-0.284875925696
-3622.50919494
0.158270608785
0.135709406667
0.270603075456
-0.235734648192
0.30326416024
-0.224693336427
-0.24801420453
0.312705372849
-0.206869561123
-924.448442874
-0.249069976261
0.0911748508299
0.0548700926184
0.13153154824
0.302747332093
-0.106919625284
0.0882153852328
-0.0862172354281
-0.310961941751
-713.773815176
-0.092124354467
0.0732275376627
-0.260374454084
0.0391363166996
0.00868628191011
0.282089797821
-0.277866559657
0.247618839656
-0.0943528671699
2694.32043774
0.0786697666181
0.236858045328
0.177521860211
-0.0222829774863
0.129483905733
-0.00818822372348
-0.0652931005702
-0.104938959765
0.249133823487
10512.4178005
-0.00626880479021
0.304489172417
0.0187048369187
0.161587380661
-0.0379804117541
0.189231678239
0.223829454059
-0.289987554321
-0.0266222261482
15943.1066568
0.147493036626
0.271117512771
0.205908589101
0.081003398215
-0.214035102598
0.207683810001
0.107749291491
0.164952505531
-0.287816220594
16327.0009081
0.122013947707
0.146278914268
-0.276701830788
0.141380597066
-0.175922453384
0.228021846177
-0.240240570302
-0.106886747151
-0.274561022908
13498.1154612
0.183539631913
0.0909082699009
0.0783911061649
-0.120010230871
-0.224716529079
-0.0780222550277
-0.240921072183
0.158797506927
0.0631601149247
5899.82944627
0.0970680832157
0.155213476697
-0.199558104296
-0.25719578863
-0.246450036687
0.265709807605
0.103100118201
0.125154984008
-0.283096633057
765.118256431
-0.241161133189
-0.180106843892
0.164061490507
0.29732045123
0.252749562255
-0.0743842766299
0.270318336395
-0.236903542465
-0.195284602624
-421.504415444
0.0724280005246
-0.120888981096
0.285314722408
-0.0777276284503
0.00899940626393
-0.186632298592
-0.00445386967627
-0.26873548351
-0.304612711474
126.964039158
0.0940549108514
0.0153294988927
0.308950215439
-0.04427211451
-0.058522324292
0.313608065057
-0.272505999714
-0.132092281194
-0.198590611193
-0.0386818433936
-0.214891917984
0.271244640792
-0.291418477261
0.151812381311
0.0250620596802
-0.273713749101
0.122166726719
0.0445386984979
-0.283960521052
-0.103963324316
-0.209198015921
0.244653253212
0.107241217375
-0.2109264159
-0.207328896914
0.101941632452
-0.249830133845
-0.0204740888877
0.0307376539447
0.205596817103
-0.2174326509
-0.168946481088
0.277514706311
-0.120308472628
0.0389892385333
0.22343100479
0.0464997289555
-0.219289791322
-0.18810174679
41.5039258633
-0.233225758807
-0.205134213026
-0.142760316147
-0.228867185664
-0.125269565278
0.178453541631
0.0620847170392
-0.0364126336124
-0.193146426926
26.3035652981
0.0297617237853
0.268329491651
0.139298044044
0.0699341504667
0.173401460988
-0.242425385847
-0.290646395314
0.154183851749
0.0565179628646
-3.93930977857
0.246287571932
0.0169493613953
0.20543949062
0.230016833949
0.0402880259093
-0.250651958102
-0.250358210351
0.00675953149345
0.305601903618
-359.194831072
0.150087613711
0.29479006394
0.0617315209812
-0.0890790941043
-0.0137773380926
-0.211213029256
0.30979624536
0.0391962058481
0.312139769878
90.6052142865
0.165710308631
0.131565736806
-0.0484201610802
-0.308008639032
0.273949885406
-0.0909317450633
0.114008663468
0.267633054397
0.0780967093061
950.443138779
-0.295002290134
0.289899049111
0.20028321839
-0.110095845721
0.185923444126
-0.158536974069
0.0581966389111
-0.250967135801
0.0941470604292
8896.52346611
0.194362926539
-0.256048034671
-0.238444594605
0.213296129345
0.237348963765
-0.0152062437341
0.234801249716
0.264357063602
-0.25705220649
23662.6595511
0.104159387045
-0.244858521014
-0.254727307398
0.198840238538
0.0461854366711
0.240193759099
-0.160080838583
-0.000366993535748
-0.0542233284631
36023.8493366
-0.290284994671
0.213405323498
-0.00241111339196
0.0947102989823
0.03724860159
0.0700107669266
0.130736180486
0.244439895813
-0.170927516671
40510.7962167
0.164852698299
-0.238037145404
-0.126119665221
0.127756756395
-0.16934491373
0.154488744002
0.0552339268785
-0.282313229459
0.151902244141
43793.5966684
-0.209120286022
-0.12089424856
-0.107644950072
-0.00609413198599
-0.00478950694147
-0.0799103435325
-0.0155633906442
-0.0677327989894
0.282099969839
25876.9752577
0.31418859248
-0.161358998511
-0.189861318877
-0.260756187125
0.252225519263
0.0737013058048
0.257973554601
0.182047549629
0.0299397989672
-304.160059036
0.204337348364
0.165581778515
0.0809843197098
0.31576513852
-0.0920732303136
-0.0367055231025
-0.0674151744412
0.269405849426
0.042412136946
-20590.5127294
0.0484525980339
0.29316540018
0.149073404282
0.0135768630958
-0.101760717631
0.155390570445
0.0276940279673
-0.129448080021
0.145695554123
-10826.2645195
0.0618720270128
-0.21022819156
-0.0720821702762
0.203633540498
-0.187872511621
-0.272110999583
0.142620333099
-0.232886596893
-0.0342992751846
242.511203165
-0.219495781192
-0.231177357927
-0.308797443515
-0.130649254885
-0.0889560962373
-0.0266266292986
0.25742513729
0.185891635243
0.279598806285
578.44015754
0.171018192958
-0.0176632509749
0.262879607204
0.226706651715
-0.261192299404
0.279653765021
0.161211887303
0.29785436751
0.142783667983
5893.83600577
0.286635859762
0.123051241724
-0.131529402605
0.294829886116
0.223656538051
0.179587729995
0.282482113295
0.288805594067
0.306311401389
15648.5827073
0.135004354177
0.0575578987572
0.165021321272
-0.00958033234301
-0.105301251003
0.0903479362226
0.313113468109
-0.262692908524
0.022241190869
20536.5201067
0.116200107619
0.0330154890543
0.229518957613
0.144300765333
0.256201678385
-0.0894759462998
0.275528441219
0.134820784548
-0.0795165361333
15642.3958993
0.30428922236
0.2660234127
0.158212686313
-0.190699667325
-0.280943104106
0.159427251103
-0.226962344898
-0.0265372737618
-0.192970574727
8200.74675892
-0.146274508282
0.30291329433
-0.284363019772
-0.288317828619
-0.109278023583
0.11679733068
0.234730956386
-0.144385600226
-0.0959838757559
1583.53914015
0.132437874222
0.0359861201024
0.037214546478
0.0963657230681
-0.27081867424
-0.0409693626496
-0.245594537239
-0.163520866228
-0.229411603943
-592.695793794
0.128081294274
0.182768820068
-0.0584242151836
0.255113206396
-0.0648086647572
-0.234454929661
0.167402058889
-0.102678027816
0.166350602205
-523.152896317
-0.0391341852951
-0.168960231995
-0.151921908687
0.157774489832
-0.15976147135
0.060648620313
0.000850033121214
-0.245329237751
0.295544145551
-0.0175217364806
0.13260217689
-0.0101505599936
-0.285534381179
0.0532750963836
-0.0159506725209
-0.166127269822
0.214901549087
-0.0204810073076
0.212312944819
-0.0188528236503
-0.165257177014
0.242291729351
-0.0355479249529
0.253000619431
-0.0902171752153
0.133267060573
0.00186477350099
0.2209318227
-0.275696650865
3.41984493837
-0.294985621863
0.227395034636
0.106653986709
-0.0349849366829
-0.0553617438784
0.1307645783
-0.259682666328
0.0764854331474
0.19476870302
89.9982857058
0.0505508015378
-0.050099344964
0.019410631615
-0.0589372943456
-0.0370636887445
-0.207236699535
-0.267639014487
-0.168067217604
0.183526995427
113.930356016
0.0310770269646
-0.0482176263579
0.2672912403
-0.114328973452
-0.0630518691424
0.0610212770906
-0.053187278165
0.122734348764
-0.172321095561
448.62589991
-0.0999969464335
0.118739463141
0.0776006068976
0.172226381411
-0.195343192008
0.194434289609
-0.144488100729
-0.0701019669072
-0.215285900577
815.357956594
-0.0626444701743
-0.194138988403
0.226106754349
-0.238990549217
-0.312876525008
-0.244404694255
0.0468174737809
-0.107453234547
0.132220715307
24.2815950957
0.28301142829
-0.0596665510773
-0.195535002964
0.150515863579
-0.224472947141
-0.200474731353
0.202111628527
0.228361785971
-0.232718394303
8660.62051749
-0.0662075412629
0.0764852541039
-0.309729821931
-0.285347907059
0.13224939203
-0.120806562146
-0.0587676857228
0.0738458696149
-0.224738371224
17417.2435554
0.304016420546
0.177254269061
0.145765424132
-0.147495309997
-0.231507271968
-0.29849605351
0.128515702685
-0.261401987639
-0.29904304518
28416.1346075
-0.0862351664
-0.00792753040389
-0.178108256485
-0.215561097862
-0.024320824477
-0.155289755856
0.18902817467
-0.187861546437
-0.123608359958
30306.9156071
-0.285078117041
-0.00970914902495
0.0218260964155
-0.276751842984
-0.0865277092766
-0.0242150974751
0.0345470427043
-0.154168460472
-0.270031079407
29570.6857116
-0.246719037906
-0.114627864782
-0.236135643004
-0.264433908222
0.11232216959
-0.0194367278287
-0.0814046067276
-0.20158907543
-0.19359383173
38960.8145234
0.151348978032
0.0321149694693
-0.230722182036
0.0956309434121
-0.228075489569
-0.200561197859
0.281090146953
0.214731468573
-0.170261919028
17544.8478334
0.310174241945
-0.218543219967
0.039079755418
-0.0119758104465
-0.0518344539546
0.119076882088
0.0564710135378
0.292856095894
0.0856759146704
-6339.39545338
-0.239574937968
-0.234693978279
-0.0179783646092
0.0839785971099
-0.248793728376
0.0816848131677
0.25559211842
-0.281105944057
-0.169922741884
-21205.7975645
0.280780765716
-0.118664717244
0.062220937399
0.158343717957
-0.0637851616952
-0.238234563627
0.113064736895
-0.225621470657
-0.293384675693
-257.281518863
-0.252713758808
-0.0527058990444
0.2858186505
0.134642321988
0.0645520889025
-0.308758649454
0.0956690483635
0.310210777807
0.241815895346
19787.7218549
0.183798826282
-0.197838645116
-0.232037528098
-0.207028537976
-0.113034875453
0.160718486166
0.0136354498011
-0.0508721260843
0.0399378069718
7399.37031296
0.10645829611
-0.251749315664
-0.0813441384736
0.16629629266
0.240945293036
-0.0979218922035
0.283547632338
0.308898881575
0.308115295916
5069.02543457
-0.306909650253
0.145818931596
0.200801000636
-0.309514958991
0.114567453111
-0.180509735163
0.135602977108
-0.297713280993
-0.0697748879588
9285.97583574
-0.00023091295051
0.2930322384
-0.0263479093171
-0.245125875631
0.0454160906677
0.305633546064
-0.0468274722598
-0.290855735517
0.194045852551
9923.51679703
-0.292863644022
0.296203936462
-0.0454059810881
0.0615004471861
-0.184177206094
-0.0824264568519
-0.135584276128
-0.305157057856
-0.208498216409
8123.2407363
-0.211352104525
0.192386615776
0.294711511383
0.0247493628791
-0.293381859724
0.100104881402
-0.30266463744
0.211485921556
-0.256578600182
5287.71343402
-0.142635534774
-0.11228124824
0.130206250351
-0.191738747989
0.019676868014
-0.244659085668
-0.210874097704
0.204569389942
-0.299464317301
2176.15491779
0.113599151807
0.292482266355
-0.0696680262405
0.101858822374
0.0996002585175
0.00470675032087
-0.298122020669
-0.297951487605
0.239585721318
475.851017361
-0.196411866406
-0.196932415049
-0.12012400142
-0.00297653133958
-0.0505521403083
-0.266648776473
0.272396941764
-0.219704640097
0.191108025883
754.609898912
0.147654945915
0.0976226090785
0.271784182718
0.00648069191367
0.258011851062
0.180899759248
0.266236024774
0.0533996593971
-0.193915157705
0.02480650761
-0.220221504184
-0.104602641082
0.220400358045
-0.202258812703
0.304446045787
0.108557554137
0.265423709371
-0.236873247429
-0.12294102347
0.0916506091142
-0.0495946186619
0.0425785810621
0.0637973401767
-0.206146565507
-0.0657866698347
0.0565437044764
0.161436729092
-0.222726026822
0.0843804981919
32.8735482173
0.230442823529
0.185546255908
-0.299151453921
-0.0085198424867
0.229987463116
-0.176798601257
-0.0788434796082
0.091089252917
0.0409254348498
143.187382337
-0.132077661923
-0.251826757744
0.220554946642
-0.255462837005
0.262984434457
0.172982505017
-0.000710207018742
-0.0112683347126
0.253690176213
343.558755078
-0.0673977815188
0.121598045632
-0.146985503687
0.141123296753
-0.137365655669
-0.1130117553
0.182209194243
-0.105790977111
0.055917831164
1070.87492939
-0.192875137888
0.0623015932466
0.106797832985
0.204167731861
0.296603395276
-0.0260495719006
-0.218163716667
-0.0380311695813
0.227374739536
1456.54551723
-0.13885820937
-0.246988089888
-0.00811636677615
-0.0795650108766
0.00992880031907
-0.0115915921339
0.125245552986
0.157321330945
0.263195104895
3961.1095122
0.208748859134
0.16720960368
-0.296510181462
-0.143839886831
-0.116587712072
0.278114975445
0.0328141293505
-0.0651154117656
0.073921447283
17584.2355116
-0.205070256603
-0.265128753191
0.141644748185
-0.270587318331
0.0904179986319
0.046547940807
-0.314678243109
-0.298086477446
-0.18120287319
31038.3267618
0.0868473775627
-0.214041214588
-0.250949288874
0.13591965324
-0.196731305959
-0.227241763474
0.314485696436
0.228008196123
0.313111999576
29024.6838022
0.250547548943
-0.154092084185
-0.0338742044255
0.144220829892
0.268806840998
-0.00856693110465
0.153668375787
-0.0495045440301
-0.0435674389137
19957.5452915
0.28208177222
-0.231567493305
0.10982197528
0.0544339572831
0.0672800443309
0.1173068722
-0.0526950755134
-0.110789871221
-0.21754375082
9984.20080911
-0.240128911049
-0.0185749561666
-0.136839601602
0.315813869251
0.241076582389
-0.156814902449
0.0706135058074
-0.0911043852875
-0.300716838094
15546.8819005
-0.00290645567838
0.199941880736
0.0590889012329
-0.210621310618
0.0927531759267
-0.111815898207
-0.138454306487
-0.290806446711
0.0538477901734
6737.56114362
-0.00389049150703
-0.120190423058
0.128230337272
0.176400951379
0.241339808963
0.101833373498
-0.202534080808
-0.132550417513
0.168627846481
-7057.01903106
0.0594269694333
0.220828746508
0.21702160789
-0.189812756666
0.305751935927
-0.160937975516
0.107208044171
-0.00742022189289
-0.0298752946559
-9528.13516078
0.275751216141
-0.0936024189881
0.177704821182
0.172110068378
-0.309232551986
-0.275870955727
-0.253940562471
-0.253637424332
-0.029355527853
18319.1003925
0.254505193918
-0.0123718408633
-0.0664327766981
0.162859105726
-0.219680436731
-0.283755052838
-0.117628329953
-0.158871604129
-0.119949588387
31193.8532166
0.196989390267
0.0106628744926
0.0217535401091
0.305484917607
-0.210464637027
0.225473094671
0.103883757595
0.233569445428
0.206449003518
23177.7981222
-0.0825631967411
-0.084144690863
0.285121005571
0.108029899873
-0.238188463705
0.181186004152
0.126685797279
0.08213724309
-0.160336672631
6542.69404865
-0.235974711303
0.101320940293
0.292149018091
-0.15001371883
0.10663663797
0.227196602121
0.198943142018
0.0124832431123
0.246772866355
2196.79200913
0.109959296001
-0.248827354577
0.115816424223
-0.00951834139943
-0.205952214657
0.105722177563
0.0406911226601
0.0524522366594
-0.0701485315034
1698.4500524
-0.116006375739
-0.0592487220215
0.311025729434
-0.0282323800567
-0.155884925578
0.153267191837
-0.310586996941
0.125291705679
0.290868216705
1131.23893611
0.123517697181
0.0147892866055
0.0297749039431
-0.0276342731531
0.286610461141
-0.150479464338
-0.191594655933
0.135713636934
-0.0381277209664
-890.508141691
0.255205511829
-0.137539301963
-0.235681201383
0.300385486148
0.310535365319
-0.29626202857
0.119491120498
0.138403803923
0.15019978769
93.052159551
-0.0278253739413
0.22852817061
0.127354838254
0.138691105816
0.236164380277
-0.307150896176
-0.19026458515
-0.179451100832
-0.242639902566
1197.35019073
-0.151099216312
-0.225218821734
-0.135991587835
0.229510235558
0.0175279657539
0.148095765007
0.0409564147955
0.19582500497
0.0643178173646
89.2715886116
-0.0711739482416
0.228809634812
-0.0123268289364
0.173089084206
0.26028306918
0.0983543499386
-0.260218864599
0.26887694976
0.111810702484
-0.181909972805
0.0678282665561
-0.120670747804
0.0232391110943
-0.0553635586491
0.297771827922
-0.246332813292
0.179793437088
0.296020886286
-0.165477614215
-0.126189755206
0.112714364252
0.116996251733
0.192191389758
-0.219252355323
0.274816507747
0.181906321696
-0.205495183203
-0.174680122645
-0.0046539808655
27.5772626078
-0.049081818645
-0.268749553876
0.0619382329608
0.315043332956
-0.00857319132459
0.162661295706
0.0113330456346
-0.216616766013
0.183771248744
76.2862581807
-0.0359080619622
-0.00765434309497
-0.0489227271002
0.259100883241
-0.140613517794
0.199859960573
0.278727772349
-0.000338049443378
-0.00544709730883
820.311957035
0.15514937948
-0.215665797975
-0.254076209916
0.183316688455
0.0801708352109
0.102276131362
0.250325940575
-0.212652165498
-0.0609532316063
1333.78054565
-0.273700391457
0.197833048511
0.291716753806
0.310137691233
-0.0872803850653
-0.0597750981535
0.148085955163
-0.121231951039
0.251498300796
3608.84794159
0.193260283921
-0.291093403328
0.129729282805
0.0151732825312
0.0339955336414
0.197482055176
-0.127098326031
0.164732207766
-0.132344557698
10058.4919379
-0.0954157926106
0.145519598284
-0.000264468178682
0.154476982484
-0.122816384129
-0.187883011318
-0.0294597041933
0.184313740296
-0.266305711532
20680.7642331
0.280732447659
-0.044598196763
-0.122435331601
0.315414716938
0.232988445
0.0141971477982
-0.0712956309624
0.142665234151
-0.20891505925
31123.2526542
0.218022640387
-0.281379367246
0.208989642597
-0.149562806028
-0.209873409563
0.146857794537
-0.171669565252
0.0623748858302
0.0202865997072
24516.247413
-0.134924672478
0.214597306277
0.238412759393
-0.13577150519
-0.277518001513
0.142720538061
0.271593025631
-0.304505963806
0.191386260424
188.393224554
0.166731280596
0.120260292244
-0.0935747329703
-0.171705671119
0.137068460851
0.0892196943844
-0.266852042961
-0.111281621961
0.149711528052
-11003.763465
0.193153075544
-0.00192670649859
0.245871383195
0.0931939363484
0.235639776963
-0.0351146369428
-0.185689401122
0.217161028599
0.273735703557
-7172.87188908
0.235970660864
-0.166539417524
0.161559888336
-0.311132944064
0.203920404826
0.0632376523467
0.173596017337
0.276998278305
0.29141265901
-3681.01864057
0.0862100268693
0.20094764215
-0.179592082144
-0.205899523618
0.254674480155
0.0783581545432
0.294289566443
0.0768119934506
-0.00429631583108
-11715.0513374
-0.220689064971
0.0148458038773
0.267481420655
-0.204604121004
-0.122322836263
0.0356561621837
0.15773128411
-0.138077487465
-0.135853654463
-7464.26361876
-0.179147651229
0.190685931614
-0.196263811983
-0.0524372926473
-0.210958642121
0.0794859550055
-0.289545614679
-0.109095558021
-0.265000611656
18589.2662029
-0.0335379220917
-0.0289682531623
0.283683663101
-0.111951622948
0.278984679012
0.178831118825
0.290062214431
-0.300171570237
0.287207209936
31956.9494781
-0.21235934457
-0.0770681414986
0.232760307655
0.0591618382428
0.107992250737
0.0385491939861
0.13556398994
-0.308261029619
-0.0770269007349
24500.8742194
0.184133271143
-0.190952341034
0.270611883616
0.10649168031
-0.0272307500452
0.0299139436483
0.12539801841
0.215298335939
0.299848680065
14827.2553757
-0.265971006318
0.229278410729
0.302321608771
0.082460082263
0.113272729588
-0.161065519519
0.255715602789
0.0148238387675
0.0426908112368
10987.9004239
0.254497522057
0.218260477827
-0.229317419646
0.139375432235
-0.27197145472
0.0255948258889
0.0170881199134
-0.0563735685944
-0.0384235278556
1890.3688055
-0.0660321697434
-0.217727206955
-0.0768230095287
0.0468139793858
-0.0326144837484
0.215126162623
-0.0974840577827
0.248511576336
0.0474246784925
-4889.07094929
0.0981834153405
0.0462405754948
0.225486955181
-0.186311907702
-0.267030349703
-0.0436513028809
-0.100325166851
-0.127046657559
-0.285371852436
-5318.68521977
-0.00668227307792
0.0259429579984
0.171541362401
0.0783487342132
0.0401696160286
0.131427202925
0.0138887157353
-0.121853724105
-0.168577536729
-1644.98558355
0.260860283856
0.0419225284869
-0.00311831615715
0.0221409701121
0.101593061266
-0.306775467508
0.0780713622526
-0.0800418445977
-0.277504030212
423.801952028
0.0376381156526
-0.17762020839
0.0618929763379
-0.253838064462
-0.101324858719
0.175624344047
0.211440810656
-0.296677198309
0.110385236168
29.3455016638
-0.0108476234623
0.218235033929
0.110291188689
-0.282578561308
-0.228471058241
0.276619313471
-0.10524522058
0.0458638380345
-0.0224915451317
-0.241218504441
-0.180422420902
0.258481460714
-0.0671632808246
0.145999034029
-0.201441564179
0.000878256674296
-0.136523318127
-0.0570749850161
-0.282806928888
0.234968591564
-0.225390916822
-0.26179625642
0.124731599718
-0.0884597942137
-0.303108040754
0.00384019903974
-0.00896937747435
-0.170767916009
-0.257452815028
2.19815722341
-0.0247606547033
0.168824346785
0.265216542244
0.242660501397
0.047696158872
-0.291216231826
0.169470440075
0.0716170483913
0.00383156360498
-11.8463001279
-0.0443778460563
0.244795358412
0.147229078922
-0.116750469466
0.142805490407
-0.0793945011333
-0.291453225501
0.154815778965
-0.21891701847
857.425668382
0.0440170122519
0.178998877934
-0.078470405574
0.310001931507
0.169197894844
0.06383604138
-0.0372317710306
0.253612777835
0.208720980399
1313.723128
0.156783837059
0.0975324599512
0.0387533312275
0.312439768693
0.00353909341048
0.153204371849
-0.26541084774
-0.155217509284
0.287819659084
8057.79644482
0.265153928494
-0.26146983785
0.228047438546
0.219197003992
0.271561007656
0.136188918648
-0.150587438319
0.115756165082
-0.0400934716559
13782.2693084
0.220485148256
0.173466980456
-0.253843005561
-0.262388247816
0.174520547111
0.0365567765728
0.163200550641
0.011459631499
0.183616423854
21570.5592622
-0.150164135684
0.108138014002
0.0762467588939
0.304986825228
-0.0642824101155
0.00399799474603
-0.0867553688926
0.295851869421
0.297014477927
24740.9240082
0.00161787769732
0.121306158743
-0.0941663060331
0.212070636495
-0.189899084702
0.213552804818
0.219988919058
0.114696558542
-0.0737288468009
10245.7444875
0.10085435767
-0.300498984878
-0.0945290595911
0.0611771363674
0.256812115023
0.303603076533
-0.247577911392
-0.246958733053
0.0928604101733
-6209.25801423
-0.0496840238582
-0.00689381878303
-0.0762758065589
0.287848634754
-0.182313651627
-0.254897901623
0.158948560961
0.259437666992
0.00542667015634
-13894.5419241
-0.0213737625446
0.164612918957
0.106986603983
0.0513717976742
0.0925831259961
-0.228588168043
-0.182345609061
-0.0273158337545
-0.0707970406612
-7859.89917678
0.307229247819
-0.0350144449797
-0.0514549132687
0.0713867221434
-0.117801876786
-0.0187508693139
-0.289858828505
-0.0453784116897
-0.263053034807
-5541.49684113
-0.175093336207
0.290845596628
-0.265207046089
0.16333697066
-0.179303155401
-0.101135559165
0.00830992941572
0.172988833223
0.0253653787485
-8669.53301848
0.144697915508
0.114406323314
-0.256880538558
-0.250371634199
0.21080467102
-0.094263654732
0.178846705253
0.196838291937
-0.234083504721
-2968.76689421
0.000828888222693
0.253526680178
-0.0414218746582
-0.234092015744
-0.288416396945
-0.292586230761
-0.00982628870361
0.126851974497
-0.297577658911
10394.2741075
-0.299191111943
-0.220526164255
0.209451111912
0.0765725638934
0.139178101552
-0.229368976722
0.30909379937
-0.284980112098
0.249588577624
22260.0376953
-0.203800514713
0.166392911989
0.208312270296
0.152408975603
0.095003078719
0.177402252795
-0.209323170053
-0.217877164554
-0.222806301067
26339.2021954
0.0329962914787
0.0691549856181
-0.0178440992711
-0.0246190011005
0.0775682992998
0.135231893372
0.210769670901
0.116766222335
0.0872890229129
18499.1601095
-0.200237009101
0.13100429805
0.175541999717
-0.125605205007
0.0482642714906
0.0279664263518
-0.0614657712433
-0.00948535969775
-0.306730365992
18126.1730396
0.116871733602
-0.264165430199
-0.197485297316
-0.0122871872676
0.0270875965887
-0.00985192667446
0.129893781006
0.150789550611
-0.309229116985
1359.44827572
0.275783994223
0.0618433813111
-0.0875905184997
-0.198849789078
-0.295468103845
-0.0391642624975
0.211308449078
0.252479700289
0.229882659638
-4645.67885938
-0.105157659322
-0.269092094634
0.0125081791508
0.313885311913
-0.206955003738
-0.271956013761
0.257163581165
0.164136953992
0.0790171075832
-9666.59974836
0.0838995329497
0.0357300253967
-0.314142706647
-0.109809983935
0.0129254304098
0.315467453596
-0.026790592416
0.267655735984
-0.0583297332651
-2789.07115056
-0.129643738539
0.170815270694
0.262565212162
-0.00945228956524
0.019186889559
-0.27686714576
0.116583039744
0.000471362862697
-0.165087903886
-367.278139445
-0.117881571607
0.156837844195
-0.298990560651
0.180562179768
-0.311488444597
-0.012036402787
0.315999571439
0.168663239412
0.154276719128
-78.5865741084
-0.244400591162
-0.22157953766
-0.233603025055
-0.158396898685
0.176171588382
-0.0547347062181
0.143242877554
0.1207407679
-0.0899492624791
-0.308226696238
0.192623653497
0.167672106281
-0.297241703047
0.0667199041858
-0.150399655325
0.229850744981
0.314259877912
-0.186159218206
0.144027728639
-0.151622605002
-0.215813972956
0.248923847318
0.0331684055722
-0.249102078139
0.179353159076
0.0870604441567
-0.071294476061
0.0150821186007
0.295213320256
0.313356595051
0.292136717363
0.199742495015
0.111833548367
-0.0683298777632
-0.124508555618
-0.233258086857
-0.242413739075
-0.265564803213
-0.119502911853
-4.22558393682
0.0576600185941
-0.272946768676
0.180317349898
-0.0179676073638
0.130779752192
-0.241799590214
0.203893975948
-0.0280903933507
-0.257941592569
120.423741561
-0.0685261870492
-0.206703460894
-0.313512633718
0.140221312251
0.126680388274
0.1496375165
0.0270603440889
-0.20447481608
-0.291301537721
1635.13554453
0.0882365751288
-0.075804427801
0.235485143586
0.0342022590411
0.251647480622
0.195351570165
-0.101874595891
-0.30228243082
0.0141006438594
8178.12853311
0.231014437789
0.019240381453
0.199170966767
0.220542604963
0.295210840389
0.295743055013
-0.0972733100379
-0.231191166957
0.160358139792
16030.5723884
0.212641251178
-0.268312565349
0.12186790837
0.043565604723
-0.206982003996
0.0744640205165
0.262470441634
0.0631107270048
-0.247262012176
17876.1805684
0.244709592785
-0.211854489399
0.0750837442034
-0.201459150839
0.194296489276
0.278310038868
0.165344069193
-0.0491935163305
0.017885758955
14664.7632121
0.121676163598
-0.205184912542
-0.042625763663
0.256072116695
-0.0135340449396
0.0259028769291
0.136766093683
-0.122949951114
-0.247868525882
4846.17768284
0.315803324479
-0.127341136299
-0.222167861344
0.179074375868
0.03264919114
-0.261640565249
-0.0805802778158
0.0859536322417
-0.149648979523
-3700.70104955
-0.124479735247
0.248040772754
-0.246567960095
-0.199450045992
-0.142074687371
0.06062132877
0.249889191526
-0.244370661571
-0.0629076048129
-3940.62356824
0.0421452360769
0.0543340471849
-0.188989170888
-0.233312785066
-0.241431953581
-0.262844600001
-0.17235755874
-0.0707209128841
-0.0343262620671
-1854.76243457
0.106430290092
-0.0217117231798
-0.0921146735741
0.256979595379
-0.0992375628389
0.0541246424138
0.00296459975635
0.100667032629
-0.201219319768
-400.268291273
0.278257846673
0.077216693901
0.291120078253
0.210966688247
-0.0952372068739
0.104769477924
0.188509796535
0.00287472747153
0.163747396904
2444.98988461
0.208888896095
0.273421633756
0.23694434508
0.0088837101384
0.209012714219
-0.189125776903
-0.234053659779
-0.113560211049
0.000739287806054
933.107671532
-0.273347274623
0.0939407699164
-0.315469823695
-0.204952373788
0.245486687299
-0.18801018776
-0.0990649244425
-0.157225805034
0.117303520829
4884.21571165
-0.239819203705
0.258012450378
-0.263455865502
0.24093878316
0.126027581862
0.30112893617
-0.151281174356
-0.0316518475781
0.294708542436
20206.3128437
0.0994771958727
0.25401460411
-0.185585089496
-0.0467351700465
0.0961629545773
-0.0707664200682
0.0828544741695
-0.169096536606
0.0365361499201
24815.7914099
-0.0375913957232
-0.288225919873
0.0978657541719
-0.208573869983
0.253181682559
-0.176258750659
-0.287803616679
-0.0643670667637
-0.010594008146
19377.0455189
-0.24311112935
-0.100477174334
0.185895629167
-0.160430246197
-0.217851124523
0.186456500358
-0.0498193223341
0.259238235708
-0.19072954754
17222.3027846
0.211900545068
0.0247423672413
0.0748673765748
-0.0911503342866
-0.148400340772
0.296381731833
0.302250221222
-0.222652175537
0.126041377268
3648.01353819
-0.0554745027535
-0.0277843792835
0.0886595873427
0.287995924885
0.0989418184328
0.147441599248
0.0304728576699
-0.178010048514
-0.265834172288
-4843.42759382
0.0841604209422
-0.233913448842
-0.199235169145
0.114403506453
0.263840665866
0.0381763782181
0.0919056780993
-0.280731983138
-0.0497410891885
-10372.180018
-0.0965987027183
0.129007875881
0.0984112014807
0.0338103584627
-0.110855613164
0.181060418248
0.141733658342
0.141119212014
-0.234183303751
-4054.8538719
-0.010488278089
-0.17045505285
-0.227080933418
0.24301763213
-0.0389459384314
-0.231281832464
-0.23677540454
0.0488612297799
0.195384781213
-130.523984508
-0.0810246985532
-0.196522641341
-0.136022686012
-0.309303302264
-0.147281221869
-0.181574634822
0.0278204195569
0.309196029123
0.0110874074465
-0.119936621742
0.149174169098
0.0323717653306
-0.234841106208
-0.0665238147089
0.169602260501
-0.0134618027367
0.299947589172
0.178190314529
-0.0336938434927
0.128529981513
0.258894170837
0.153689252343
-0.118374032901
0.22637997392
0.111942212253
-0.24346509035
0.289172613126
-0.123269498404
-0.107401545309
0.25100536978
0.291601844674
-0.232339788883
-0.201807581717
-0.263306417989
-0.155593103032
-0.160365509596
0.199924710078
0.230691550258
-0.159243597431
520.289139786
0.242119691579
-0.035412941969
0.109888407699
-0.12133307282
0.00174850038808
0.135856606911
0.0460489032602
-0.0246256034874
-0.309564813958
368.804703981
-0.00227547605063
0.0629928151019
-0.284025673114
0.293596101209
-0.0613731956787
-0.00525622061703
0.00323015919463
-0.177847009378
0.234993097464
344.81055663
-0.15530969783
0.207119603322
-0.24386633235
0.196850852086
-0.186972723965
0.0111106637827
-0.0954647516345
-0.195977086794
-0.0756119749797
3473.18896486
-0.307774064086
-0.205584223766
-0.0171918844026
-0.101290570482
0.288843217023
-0.30800000365
0.0303437093883
-0.0757133958144
-0.102328909595
9999.98953534
-0.298772487852
-0.31154955684
-0.157224788975
0.234116370928
-0.0531098198305
-0.290546381353
-0.059080247618
-0.130223300534
0.0721008141124
13445.1802993
-0.0370874476064
0.139071084926
-0.300610113306
-0.307996481299
0.178289694188
0.00291786734979
-0.184079803408
-0.295003091959
-0.149162529674
11266.2211839
0.099365949069
-0.306750866905
-0.176114983933
0.231217881409
0.193895521717
0.118270780758
-0.264804848202
-0.0889919557297
-0.224621765808
3816.57837965
-0.136647695246
0.21534008924
-0.223580207694
0.000745842836363
-0.0674615858351
0.0533413099457
0.0882431831317
-0.00210412228708
0.165178368834
1219.59404137
0.124152218871
0.162779532744
0.143199987992
0.00134807319483
0.0952553187198
-0.155095278161
-0.296037050413
-0.308530018172
0.269868486076
3399.3384031
0.244604259796
0.305163799176
-0.00101411246214
-0.212728866757
-0.0827739906171
0.204180709805
0.215153032292
0.16110844449
0.101461879398
10275.4217006
0.117538136355
0.160199893531
0.000511551392909
-0.0842469370114
-0.0769604325595
-0.0923634579225
-0.226373447723
0.0506754514222
0.203528037356
3442.40618731
-0.0353561268846
0.00758815771536
0.0156469652704
-0.156857281203
0.0527826249775
0.201538520056
0.0478733579366
-0.0869233050782
0.196664256204
3424.34267473
-0.242446422961
-0.113791448604
-0.081489636534
0.300283442241
-0.191384556727
0.18093620313
0.0996172013407
-0.167667173097
0.105753511836
5767.3024231
-0.271696895111
-0.0292603388362
0.202510654228
0.267086612037
-0.0405066861769
0.232130642951
-0.204452832823
-0.255875590313
-0.175712860385
-933.478672454
-0.0940699282227
-0.172895551395
-0.0722390271265
0.0773344598859
0.26865298599
0.137856746659
0.000118915198452
0.0906362372593
-0.110957949002
17271.8657494
-0.244511651859
-0.0697377090586
-0.215700630558
0.0935093561009
-0.175789219473
0.0857562261155
0.22650515951
-0.0429427943716
-0.010187942517
22966.1717415
-0.164412388918
0.254407675852
-0.267041187335
-0.133809076669
-0.119347961054
-0.044140428417
-0.072879296599
-0.295849356689
0.275745272596
26625.6659008
-0.141053525745
0.267798294543
-0.262793890221
0.142806932379
0.277928163465
-0.116596625995
0.287518173939
0.137942214271
-0.027352000283
19458.6076926
0.0417618903694
-0.215234483461
0.27487767883
0.160180685912
-0.308615856186
-0.155326909507
0.217866285147
-0.249393009539
-0.305264346514
11902.5258134
-0.225374519648
0.163446334653
-0.305260331754
-0.154258072352
-0.223755903405
-0.258209385398
0.141293080295
-0.24610788653
-0.0619221372853
-244.860799598
0.151982965916
-0.296603616885
-0.0195410866411
-0.149505499946
-0.192283616844
-0.178971831482
0.00636902982889
-0.265296106781
-0.0709357480667
-8235.40770297
0.231298330123
-0.0110302996013
0.0820183966861
-0.239712470373
-0.118879729352
-0.15025748741
0.30893867787
-0.0708373214292
-0.00290608301064
-10627.9702691
0.00476748613734
0.214197719452
0.25835500099
0.110939334571
-0.0995659129183
-0.235696188789
0.0326656071676
-0.278488047738
0.0702670678973
-3070.07474326
0.278047846953
-0.0476226015366
-0.0760550171047
-0.0420584958105
0.185148384925
-0.0488021473387
0.284155774349
0.193004434753
0.306454676568
71.4985923059
-0.285496355503
0.228587485089
-0.203602770553
-0.177491709832
-0.314304597625
-0.306293992835
0.0828830773799
-0.305968158159
0.00701294077622
0.779627701349
-0.204816562132
0.0272400542363
0.106179079094
-0.26805886259
-0.0872145053503
-0.0539326604786
0.189481365083
-0.240987363421
-0.187088785606
-0.142669349992
-0.234728554791
-0.312481240469
-0.161732763185
0.0887807228608
-0.242932213285
-0.242350816502
-0.200921177737
-0.104527206151
-0.229880262478
-0.180061754096
-0.252944111684
0.141181038019
0.240858876364
-0.277058391425
0.0288153640695
-0.134592938619
-0.274948853533
-0.133524491284
0.281838181556
254.808418166
-0.143071246913
0.0484431459622
-0.315419986277
-0.185854830436
0.138604921697
0.052421345541
-0.0521456914415
-0.0926923759299
-0.244063371062
594.884914235
0.304534567874
0.169111256888
0.179477137442
0.258490456799
0.130080965734
-0.229049400204
0.241229600946
-0.0687254095829
-0.196591857337
881.395630013
0.183721481834
0.0538616203885
-0.0642614997941
0.16759170612
0.269193512497
-0.277534995931
-0.0237790272721
-0.276791995891
0.207116940166
5585.97150539
0.187612550545
-0.0403321168337
0.080322517035
-0.163274143544
-0.0222296885791
-0.113692803055
0.138875385288
-0.119522247232
-0.0302263591452
9655.62762534
0.20024572169
-0.286346317687
-0.188610310348
-0.311608136321
-0.24485602474
-0.21010023463
0.233208519145
-0.0271393846978
-0.180697773881
6244.19525996
0.148161517272
-0.233450670285
0.0243768578919
0.00630318226568
0.0988635549219
-0.168383171596
0.201408621377
-0.109096615181
-0.150908144617
4710.50696602
-0.0617622034796
-0.0874951080945
-0.155804907239
0.089860918779
-0.0516493418793
0.0275328314533
0.0971084244426
-0.0327314294214
0.102743724316
-3071.0249746
-0.10597660996
-0.179639256879
-0.20150752073
0.257823146347
0.0141528974597
-0.288948148699
0.0805196837357
-0.289838931194
-0.0541038366223
3867.96075183
-0.0653073221451
0.103347179812
-0.274883842815
-0.204091286329
-0.0973507748627
0.0202145119981
0.0672689486894
-0.226977835192
-0.0436913591369
13138.7948214
0.288519640282
-0.166563507651
-0.0956565691917
-0.219319807445
0.0422460330457
0.200083442425
-0.253689589552
0.216870646604
-0.0774128491942
21613.4863503
-0.193951901511
0.184882384764
0.211669934684
-0.0814342563995
0.0693508167237
-0.00420200788725
0.0989867098049
-0.0290786749063
0.0316874816355
11940.4476586
-0.159849309916
-0.0357518606187
-0.200385406778
-0.0148425882935
0.0525648717657
0.0609305994637
-0.0497195746309
0.160180648061
0.252901127819
2259.30543001
-0.27553632507
0.242028065347
-0.286844820287
0.301217224349
-0.0963685793126
0.12296922403
0.132599536977
-0.127955395681
0.187379351085
12210.46146
-0.21620712897
-0.21457573885
-0.24412502749
0.273568931514
0.255151891077
0.100230102356
-0.0728887163589
0.146421034992
-0.243697228866
16065.8580799
-0.0476743099321
0.215927052889
-0.174842648248
0.260715716675
-0.0867209650589
0.187174163658
-0.0673497455237
-0.147678639055
0.122888022033
39551.0241187
-0.067812645223
-0.0231143351244
-0.139410781392
-0.00122216455991
-0.26455869547
-0.00898198684884
-0.00733242858807
-0.280860643274
0.27208210778
33670.4551439
0.287555240045
-0.121708657977
-0.143928327102
0.286177587304
0.0196372248163
0.253719413279
0.190482756454
0.0755523646523
0.192402531421
25844.2438012
0.0375460533961
0.0979475751067
-0.11440004404
0.275778817033
-0.314314995152
-0.0914224175301
-0.104660786538
-0.188043458134
0.011874345172
5798.58172766
0.0597269445334
0.00548434284043
-0.0125094139403
-0.142744498287
-0.311576200119
-0.216512314261
0.256306064113
0.272570013492
-0.310590368889
5031.54773898
-0.284005122819
-0.283006303597
0.133248292789
0.280435334363
-0.151082602997
0.224228273427
0.231805196102
0.178714877209
-0.0494545637961
527.439419449
0.0904456303378
-0.183643234168
-0.161710551745
-0.102443014214
-0.167662148822
-0.137426283809
-0.21727864674
0.293086005186
0.170713077352
-11918.4625433
-0.30785900575
0.106721210836
0.110531315582
-0.0860717261581
-0.0245523985696
-0.240761750928
-0.0510319095523
-0.191207274945
0.256114751411
-8302.07315292
0.0612629118519
0.0332214788437
-0.13765282973
-0.218866181537
0.0773257505001
-0.0469585502129
-0.293581028846
0.279521317386
0.108272379445
-2509.56706771
0.274922515285
0.120185758561
-0.078188174024
0.180003652807
-0.285985834641
0.311644875846
-0.312121027231
0.0464168471762
-0.316181735574
-68.8795444239
-0.00663164519949
-0.180775283635
-0.0858601482597
0.126089486357
0.124501005391
0.103395523705
0.286088244137
-0.101091902519
0.024693625962
0.203744152082
0.298926344317
0.254621310983
-0.302944171875
-0.149177553735
-0.227203944385
0.308026347885
-0.0300564049972
0.0812717333595
0.00474525970169
-0.113432545985
-0.170181769589
0.269069188434
-0.165351414009
0.250095768697
0.0972209283934
0.0390489866651
-0.0864902147191
-0.20842381368
-0.20985164013
0.260329031391
0.107092246479
-0.19427914466
0.0999885997225
0.159072406282
0.106006670266
0.185241808774
0.19093458072
0.218406073847
0.0218694895895
-0.119677789346
0.111354005592
-0.13981743194
-0.0618035189531
-0.005706238593
0.172420305252
0.265375930125
-0.243777640424
-0.248728218918
0.219542611621
0.109784422879
0.0540538572833
0.107863984764
0.182758261571
-0.267128733762
-0.266264393632
0.223289007473
0.0391021568494
-0.24564041708
-0.0593134258618
251.579384922
0.126615384198
0.0707214931165
0.29572651046
-0.139420949355
-0.0109568612613
-0.158789699661
0.0122681163355
0.217512302138
0.0189996652989
5490.56057667
-0.246858974804
-0.0934126965129
0.0474671790722
0.269975276097
-0.302879443314
0.202579173978
-0.0879948927663
0.120858883807
0.0526921335671
6517.38443764
0.294498320266
0.0161901555516
0.237046877413
0.0975007777111
0.0150216297253
-0.0472953421457
-0.128266544538
-0.246883034898
0.12635307858
5877.70420727
0.0257324746866
-0.00154934724719
-0.131686922648
-0.187254947096
0.0734679254594
0.300545944896
-0.0611366857887
-0.224855079399
0.139969032337
2825.62158604
0.0905044413597
0.0778504554042
0.230964023422
0.0113388915273
-0.0610461725758
0.24957965369
0.178909550333
-0.198421123328
-0.0473885273662
597.44909355
-0.240674267205
-0.200875494522
-0.285164190887
0.122502397889
0.265175571215
0.258466359889
0.102443124364
-0.0668527428573
0.146257882264
11367.9714715
0.273045401476
-0.0905453510516
0.315926767073
-0.201268446292
0.252201838719
-0.0818541731894
0.0270770561075
-0.105105290475
0.266367949019
25799.871919
0.192012808278
0.272661144788
-0.0100794257682
0.278716442622
0.2953647774
0.0433494400359
0.295627889713
0.172175511318
0.180648229787
22173.2748834
-0.161936727815
0.141934962192
-0.0263928186851
-0.0299839556023
0.293820402191
-0.0805539415262
0.0896165706462
0.0854268935141
-0.314057621974
6202.99741419
0.076940527482
0.288005710947
-0.168107163276
-0.28860502075
0.0416657611597
-0.209266522787
0.248838918759
-0.132828984474
-0.274829311962
3295.92517108
0.275807312159
0.231515145126
0.135789268265
0.293233822532
0.257758471328
0.0107244171559
-0.0386406119127
0.309208136187
0.102117959795
21558.8830941
-0.170107333755
0.225792584566
-0.00883659920543
0.250122597493
0.277434435639
-0.0220109574295
0.259369634259
0.206433005103
0.174865814928
38298.8362627
0.014751484123
-0.159331944919
-0.286387099289
-0.288071271888
-0.0794058746291
-0.0460012282297
-0.0839384207279
0.272346152919
-0.235900564021
52175.2964508
-0.22508329501
0.289449678412
-0.104846360992
0.233621217967
-0.2825394974
-0.103077012765
-0.230677691682
0.0840335569299
-0.0439787390497
43965.3153044
-0.0904146389986
-0.287161030565
0.178635337317
0.0637666381557
0.0830590049176
-0.177085760804
0.256577962278
-0.223838062124
0.295637846372
26755.7803291
0.135412900294
0.249062370152
0.171888570502
-0.0164791003377
0.242234367679
0.195782857861
-0.0430499625
-0.193125754305
0.0595044722577
6459.92469365
-0.00468021967562
0.221938934615
-0.0914677859737
-0.279613106488
-0.052601955779
-0.0960550645682
-0.0946267312272
-0.016885101326
0.136453482482
-1067.73845678
0.0891567235951
-0.145288225776
-0.00567417729565
-0.187404755345
0.113188238153
0.248112921285
-0.143747548323
0.280256685493
0.00648378354046
-246.182583199
0.0365338625343
0.189335222124
0.135519827432
0.0380420015143
-0.0489600888061
0.0518681763513
-0.0586189856113
0.193151439814
-0.245322327309
-9974.0444094
0.205465733924
-0.119429415425
0.310145643875
0.170302391378
0.0549870196317
0.140145638216
-0.29507945548
0.065298912149
-0.121086252732
-6885.43093888
0.217037810592
0.277090765248
-0.0688763565218
-0.129101172218
-0.240631344494
-0.19955604163
0.0296519572725
-0.298502943929
0.156951590871
-3153.8945935
0.124516894899
-0.177838715012
-0.221060007143
-0.235600096525
0.0312169170508
0.213123961863
0.15343069457
0.152921665559
0.276222448269
-424.017915444
0.0264438575214
-0.0610065875491
-0.207339659671
-0.0448031735446
0.192404334028
0.272252375524
0.18086726188
-0.266116886686
-0.296853346939
-0.126245085961
-0.0508677182604
0.152167480475
0.0847468590185
-0.0731520871247
-0.300548361861
-0.0861407249539
-0.157556472762
-0.256563319435
0.30594932832
-0.0551149632359
-0.251007522241
0.144624423253
-0.0572463353355
0.0292228523854
0.272588421751
-0.138651770805
-0.141998378695
-0.274468749233
0.233860737274
-0.182728027892
0.206832121968
-0.258452255759
-0.22050716035
-0.0653624274372
-0.160147157627
0.14463773759
-0.0845874840973
0.0667961912425
-0.204193331077
0.206467088807
0.0335648869562
0.132061280379
-0.115506018342
-0.0158440722092
-0.245468811994
0.15188967903
0.0736806034186
-0.207898490992
0.20628971102
0.177306084185
-0.240797011331
-0.0771185698905
-0.00148640278876
0.0687985680624
-0.0553855400059
-0.125684773345
0.213739801843
0.201973650727
-0.0608540765869
837.239514941
0.189407255671
-0.312365091433
0.0542315341991
0.0648349754106
-0.041046421795
-0.221762697659
-0.308197342824
0.213888860333
0.12144129511
5644.32051961
0.166118943046
0.0247355831046
-0.0622699845199
0.0577121630704
0.0315917530597
0.114292796254
-0.279535065172
0.175533822107
-0.117497430675
5167.92472551
-0.286776272519
0.123086046056
0.0722600655441
-0.0114228737351
-0.26596615812
0.0198588438492
-0.224734706603
-0.21954737921
-0.196095949735
4588.04462579
-0.206152823977
-0.0253545832758
0.2220143769
-0.249224937087
-0.23308986638
0.0171502911536
0.287304808055
-0.123507361667
0.233229270873
9777.76528852
0.0193597591593
0.0142599484508
-0.0260914222811
-0.00670649796866
0.291937910449
0.107712800087
-0.302147863699
-0.232435019005
0.0457922083937
15835.5031705
-0.135802361008
0.169657721157
0.297053718653
-0.145017191854
0.0269192190756
0.0283600563788
0.241200495841
0.131271500551
0.241284492026
19778.7695011
-0.156147346458
0.292386693102
-0.0781989591413
-0.144197960511
0.027983628959
0.277264933261
0.156889066618
0.314052575668
0.000866083787854
31329.8477267
-0.306749828219
-0.307142645191
0.0444529258501
-0.105095444502
0.288387199957
-0.152288045616
-0.0137133071951
0.252509057092
-0.25211240861
38138.5782639
0.190404489621
-0.184289486972
-0.234529885401
-0.303556975071
-0.215926859326
0.269030128095
0.0890190620902
-0.254348919651
-0.0482488097856
24141.8133204
0.285424644765
0.0584510912368
0.0736431998694
-0.22193595784
-0.287430188768
-0.140085205731
-0.2857238046
-0.229481139747
-0.243743791032
27893.0048966
-0.240293909791
-0.0862330190938
0.0211529978517
-0.144839340816
-0.0244217039904
-0.280455255416
-0.118490989493
-0.287156842627
0.016082792461
52056.8304125
-0.0925981717881
0.185033430308
0.208718840098
-0.303731697821
0.211021455454
0.135578066173
0.054775842625
0.0940658901632
-0.194046226456
69329.5718259
0.147610827651
-0.194335001334
-0.275074923304
-0.180897730881
-0.102779495918
-0.309260432897
-0.219237610551
-0.0210812315025
0.0458724434833
67942.5900444
0.240016656083
0.139261251077
0.298146057484
-0.0279918385523
0.0923545228109
-0.278395772307
0.177255833634
0.277758968587
-0.226720419752
50066.5700766
0.0602011282055
0.0250247046942
-0.040806368054
-0.249943881853
-0.0189962168263
0.314276861569
-0.0203597314392
0.0515368268488
0.253834087205
31433.3124423
0.0947514758733
0.100268490349
-0.257971758701
-0.0463712352208
-0.150446928561
0.112658939796
-0.203795720432
-0.093084901236
0.0232704280327
13915.1494577
-0.172745445991
-0.218304192487
-0.0618308484866
0.0815357993251
0.207016657238
-0.076086067973
0.0103169255992
0.00663413779138
0.211459656796
5830.20624714
0.311173763271
0.244877168429
0.0066258832136
0.0242145343865
-0.0122703322371
0.0781324361654
0.00565233083291
0.0112421255518
-0.0971635279005
-3600.27119574
0.171655060121
0.144286960121
0.232902082301
0.204501973564
0.100397364575
-0.308315209418
-0.18350666165
0.260073183196
-0.0242200078654
-9159.81522234
0.0783816720647
0.229898550212
0.101128892126
0.292738792493
0.257614676998
-0.280336140576
-0.138678640392
0.284058155261
0.12987537562
-5548.18618591
-0.201479385532
-0.165835383337
0.223040177083
0.0684603852062
0.0461856645247
-0.0999376533577
-0.0669443717842
0.182118653543
0.285776074005
-1592.88576543
-0.164029530217
-0.121659149883
0.123229077702
0.194486978397
-0.293908987219
0.167445232206
-0.240440759957
-0.00977691159131
0.181456251702
-362.280421256
0.013186349086
-0.0803810762694
0.22719190925
0.289743720804
-0.00662821835481
0.268598993839
-0.118818558763
0.309471431935
0.297043051934
7.53789471797
0.258631965592
-0.293877797255
-0.001888576189
0.242138964749
-0.316070810076
-0.180772640899
-0.263560620907
-0.258797657732
0.0923318881745
3.83826737079
0.0235669693573
0.0516787603684
0.016282861732
-0.257577961026
0.160574673103
0.238761309739
-0.0764230911127
0.0774752123142
0.0959740346291
0.117494452793
-0.0385754169862
0.310135253799
0.057972433285
-0.0379130938439
-0.300906822966
0.299981394372
0.264240700586
-0.313660663174
-0.0766292299743
225.382928932
-0.165095386882
0.245110124426
-0.13152179682
-0.0243646349587
0.119444554152
-0.125579672073
-0.18406827452
0.111525465418
0.0747737308958
-0.254701019341
-0.0118070881041
0.0829492301549
-0.0839359733197
0.290748000194
0.315959016875
0.069867962858
0.231791502533
0.0775214351405
-0.0311920264472
1008.3304894
0.13742392968
0.185674026861
-0.0453109979934
-0.110984502119
0.0988056325058
0.192549819776
0.0736062774715
-0.171986727876
0.0954972917114
2423.39730756
0.160612233287
-0.151873396678
0.097985839215
0.19322276166
0.197028039081
-0.294533348519
0.199346446547
0.309914185997
0.00975042156466
4693.51125798
0.0436421456739
-0.0842361083402
-0.0766575954976
-0.180484306543
-0.305967002807
0.20860808103
-0.245345731535
0.030981605497
0.24741336936
4993.30431187
0.100161495482
0.285634048984
0.266973266643
0.193758828087
-0.12202041876
0.17785805357
-0.0532993209344
-0.24392926422
0.245251673921
15918.243775
0.149938948412
0.188165036484
0.188044777514
0.221185129004
0.289636344298
-0.0150450613971
0.286969566274
0.176764667853
-0.118845805154
15744.7728035
0.140846436887
0.0934467992774
0.265093998162
0.00588116816747
0.236769626502
-0.0780044169279
-0.0845095507046
0.207772962343
-0.115223272097
11971.5891075
0.16257697009
0.144636642132
0.0944145412046
0.174427435338
0.181951993236
-0.249954756724
0.125909039519
0.186959382336
0.179050237318
21764.9284901
0.280480828202
-0.13774496648
0.029289019631
-0.246548676882
-0.0119954904606
0.147970800237
0.0436627303856
-0.0983577020719
-0.0890559573497
29477.7867742
0.310072209678
-0.231158539159
0.0681158105484
-0.100285965311
-0.0256094835103
0.29152041659
-0.223581336307
0.12726719759
-0.0424166937682
38625.8046718
-0.12330905434
-0.0283918701939
0.275942463435
-0.183923631186
-0.310531710963
-0.0156015344041
0.158696419552
-0.105051890513
0.123132276704
59828.5185712
0.226061541254
-0.132850254822
0.195971579853
-0.120260303792
0.0252162673922
-0.206782832774
-0.0900351622702
0.051185525452
0.000862613507034
79928.1652062
0.0548736963048
0.167980088785
0.221046055665
-0.0142295522358
-0.28242465721
-0.284706607614
0.287222743164
0.307958749576
-0.286281236753
81575.1235216
-0.105238843501
0.134965969523
-0.0364784538544
-0.246722352752
-0.301002626592
-0.0600798433601
0.107721524601
-0.228109974869
0.292752866684
67497.4129856
-0.312195912028
-0.026459702716
-0.282355055966
0.290821298865
0.100906056697
-0.18557542776
-0.25029487897
-0.312667595954
-0.213597332387
44605.5549363
0.225267168332
-0.283138571494
0.0914599334577
-0.242573996472
-0.308197463429
-0.22652516234
-0.162116435287
-0.0639346171281
0.308467611518
21410.6649338
-0.0551374707159
0.163934917437
-0.129237141732
-0.0317067708286
-0.279061807727
-0.233224605509
-0.104432020493
-0.177387373172
-0.170809631579
4288.24735367
-0.253046626274
-0.105073956099
-0.218584576668
-0.063550688674
0.270662400751
-0.157558154894
0.175862638646
0.141903094721
-0.164661384261
-2793.88970678
0.134579296556
-0.100168649006
0.204392277095
0.0227240262293
-0.00395503039712
-0.134947900331
0.25091769569
-0.206313498675
0.167217404907
-4517.06925617
-0.0460875077297
0.0839841515112
0.10276573151
0.280302908904
0.233459663809
0.242312356765
-0.149147883454
-0.199429946286
-0.0992485914014
-7229.90361888
-0.092383153404
0.257130689304
0.0234703408512
0.0781039104876
0.01319267452
-0.0201296354147
0.254693570195
0.217583373536
-0.20813694042
-4095.44821007
0.131509323589
-0.0853789335339
0.310442197873
-0.205411647473
0.0611077744108
0.0226007393778
-0.183870479355
0.0724374309799
-0.0258511912847
-266.106197113
-0.0434254354709
-0.0211813242251
0.268286448966
0.251712690874
-0.0133262443812
-0.304214836412
0.00630002999706
-0.273070840494
0.0795449815419
175.616545055
-0.142769140241
0.29553259092
0.293685609841
0.182209379867
-0.229241414578
-0.0162188686371
0.105595957151
0.135206189939
-0.255295800714
22.8717346687
0.255144169593
-0.241861791131
0.242691189688
-0.0344355931491
-0.249147371457
-0.314216193034
0.263538817694
-0.140328834973
0.188099848605
9.58371255264
0.174065505175
0.17107437481
-0.0423829662229
0.0814669781004
0.188544610753
-0.0341886648168
0.250824480465
0.0282441206839
-0.186846830001
0.22326070321
0.167988643278
0.0790377522509
0.0220389760532
-0.178969938208
-0.267506112854
0.24606763404
-0.118800373983
-0.312232857031
0.290980389724
12.0722417955
-0.00517522672854
-0.0547620791567
-0.259810258979
-0.297420029556
0.29730064623
0.192406573558
-0.305153163454
0.275405099103
0.139780455787
0.00912626725979
0.186649554191
0.146848989696
0.105778337569
-0.229815786031
-0.307677496045
0.157797652501
0.209827044515
0.0983975852915
0.144347782018
724.293658894
0.249194024311
-0.140007484927
0.010191438954
-0.107548589239
-0.222891834964
0.247798665984
0.291046619031
-0.156747455568
0.00165702677978
742.134336027
-0.150109607811
-0.0374258571052
0.203638920079
-0.235834185043
0.149437634016
-0.225776197477
-0.254091450352
-0.165568562363
-0.300375900196
6417.28307728
0.0789493652681
0.0507651200664
-0.178689622834
0.0566258764893
-0.029650831057
0.0654722315179
0.106260887935
-0.286937476081
-0.30217976431
11609.4188881
0.0298887664956
0.151804792349
0.217564509862
-0.127962029503
0.220727616922
-0.10730073942
-0.0730144860995
0.113081846868
-0.00336044326318
10372.7336701
0.126335923752
-0.0412588926694
-0.00018246932374
0.123404162546
-0.0660644499146
-0.124141212655
-0.177430486924
0.229191035477
-0.073018039761
9787.67220168
0.217028821749
0.126659578533
-0.118375576994
-0.0459782460565
-0.121058588671
0.0041167762575
0.143294355206
0.28518642255
-0.163029547076
6712.73573501
0.114489341404
-0.291932684352
0.102156887023
-0.227257925196
-0.126153255922
-0.0372931201455
-0.179116053239
0.0919523178292
-0.232635360183
15478.533272
0.1862257652
0.247846495762
0.305031849922
0.0767630985029
-0.230942300331
-0.0835100867486
-0.0704610764219
0.150955825537
0.160855289987
20555.1961485
0.196458909229
-0.216532643793
0.302082200901
0.113926758861
-0.0812897271581
-0.0101617253626
0.287458610688
0.104414743329
-0.0633099441536
31045.5527994
0.166649068468
0.166130782476
-0.107901873185
-0.261864914839
-0.212536780614
0.0914287895522
-0.0737439154592
0.0801330089432
-0.221568301501
49761.0094905
0.223565816216
0.0115852118113
0.170016674835
0.0554869978864
-0.275715445223
-0.0959527301307
-0.312413001744
0.0169445616098
-0.107722993212
74346.1227161
-0.19152000461
0.0699241890722
-0.0289839463052
-0.0918179796937
-0.0684863047657
0.0885939478599
-0.0415925251445
0.0413794755026
0.0972155186396
79565.4500841
0.114057185355
-0.264234166391
-0.135535563092
-0.197869666817
0.231374728645
0.0959080372353
-0.133351706881
-0.196038882467
0.0641964800305
57202.3224729
-0.160373120073
0.190163599252
-0.135151987244
0.183993839644
-0.0407169968159
-0.278535967648
-0.0275152095265
0.238571494708
0.298503530486
23324.4209051
-0.117441329529
-0.2420652531
0.0519882760357
0.150436479818
0.187489558735
0.10824540019
-0.165986098195
-0.2352638699
0.234710009606
3392.40238796
-0.258078448596
0.0359370134313
-0.138291720755
-0.201145483633
0.154909203147
-0.289203481212
0.246685272693
0.278818363538
0.0663941806254
125.257033987
-0.0637649280354
-0.127912632505
0.223627169372
-0.102421728393
-0.170375850463
-0.00202844934316
-0.185243554763
0.123873815248
-0.00700542186425
138.46532069
-0.246740414867
0.0888954325499
0.164217878053
-0.201166935176
0.189949223681
-0.11158450031
0.0842240065675
-0.148825065378
-0.315449880655
1961.72461864
-0.231081445176
-0.0773844357271
0.0252125716897
0.197547102508
-0.121371558559
0.235734980214
-0.121961051696
0.218046483199
0.267529985834
1828.09259837
0.228194219528
-0.227516694209
0.170084863612
-0.265040555834
-0.104613659178
0.0577639038121
0.285209385126
-0.0728469300586
0.089692259588
119.413557659
-0.124984510211
-0.258024034827
-0.300663770456
-0.304198532561
-0.302358186495
-0.0603627909147
0.0295205672948
0.11898088761
-0.245746581987
1167.88047093
0.30184899608
-0.0116290545681
-0.297820887029
-0.294137553538
-0.100127324796
0.283613241331
0.201842557574
-0.192801754992
0.236387889425
392.035781593
0.00325073699017
0.163316667889
0.231902638616
0.190234757811
0.164123706915
0.0370113372654
0.269984006073
0.276946183361
0.311466731083
-56.8517947733
-0.138280390577
0.178045132248
-0.0416823893718
-0.228320476336
0.0570739076785
-0.0398597491777
-0.039767383494
0.15098889386
-0.0941601974356
3.99385719853e-05
0.156510444117
0.309589401629
0.235234751011
-0.269606595905
0.182840057688
-0.0740998657688
-0.0899061202086
-0.151745558178
-0.065702362675
0.00702932077343
-0.0287483601612
-0.168437484731
0.063920283751
-0.257976449972
0.279480183959
0.300217776954
-0.0517595408477
0.248175896472
-0.0728241579475
0.109312830365
-0.143026887547
-0.0181411589264
-0.301784635376
-0.10957251072
-0.200175854172
0.266562640296
-0.0684956448326
-0.0613722785803
-0.22211917312
9.98051107096
-0.0754219613746
0.0739192205736
-0.258970267715
0.00660098719139
-0.221127133014
0.0840746910138
-0.209816431773
-0.134503281444
0.227195706092
862.537183876
0.0651497208288
-0.224470144094
-0.147198861603
-0.222123228889
-0.264506416047
0.265701538155
-0.200668016965
-0.22093253537
0.249371280986
1648.98666978
-0.271781225773
-0.306313642414
-0.0239135923748
-0.190712767218
0.203150663072
-0.0961702851245
0.0492056023845
0.114265647722
-0.220047563398
6428.49669133
-0.220161425627
-0.00983583072177
0.259033179067
0.058834786811
-0.273476067703
-0.226183863364
-0.273230746867
0.0487323173445
-0.0730040968093
7202.06543271
-0.280770301625
-0.0872542004682
-0.11226704895
-0.0556668465641
-0.277372227651
0.151125152951
-0.037852366448
0.102918426071
0.102749734569
10398.0575662
-0.128852160412
0.3135404068
0.106193500363
-0.0667070192881
0.210529981674
0.248810125928
-0.0252033061329
-0.263545611631
0.0386763448351
11711.8701337
0.103630908014
-0.114231006462
-0.290888757461
-0.0907733392087
-0.0327057022362
0.2898064515
0.209911147541
-0.30261835562
0.161494881264
12483.6424319
0.259291362976
-0.294154775554
-0.0230282658649
-0.158809971163
0.111908955185
-0.0202802108277
-0.244022027032
-0.0626061448032
0.272533105112
10788.376146
-0.307222319589
0.162228221464
-0.071716797554
0.277598400853
-0.0202848958345
0.0540303363351
0.0621008922473
-0.29197900478
0.270125690153
12555.0039111
0.217377647096
-0.255274285211
0.274785103028
-0.308320393089
-0.00924748503659
-0.259546693049
-0.177250468358
-0.24721436652
0.011664731727
26143.4569953
-0.159254366198
0.0463488901435
-0.041684607581
-0.248175839034
0.231016906857
0.146353513745
0.227866034236
0.0837733529974
0.210219129917
40481.2698288
-0.158146316815
0.159906453952
0.0770680057486
-0.0578752063718
-0.252789437668
0.239668112478
-0.205758364236
-0.252429224422
-0.0427715900445
65058.2713112
0.118900392203
-0.168527410848
0.154689400131
0.00575901802855
0.0937543172603
-0.294334755152
-0.147802598364
-0.165063283805
0.0234000112148
66506.3294899
0.239381551995
-0.195931917686
0.14592508123
-0.298687527399
-0.0331898289553
0.234554522141
-0.0297978076416
0.143650926825
0.313937477637
36124.0322826
-0.0982703747051
-0.0791982121485
-0.0254087385501
0.177583432572
-0.163829260175
0.0763440480707
0.115298062954
-0.202132929323
0.0603250869254
3150.76976035
-0.28464635562
0.288557960175
-0.0711992129708
0.0819571056624
-0.00911771062813
0.0581207660385
-0.0757251567161
0.266189904897
-0.076602636899
-4772.09552486
-0.112256468714
0.0396391666419
0.154164328018
-0.0622752475915
0.0670551932043
-0.112028692218
0.0854724251
-0.217744680281
-0.280736815403
2284.52135063
-0.0482781213401
0.262380573533
0.155065450172
-0.0864376089722
-0.209006498967
-0.235447625802
-0.0410403625906
-0.129627613125
-0.300057887056
6111.84029386
0.0693181623059
-0.0006195012052
-0.0648162155961
-0.13800865017
0.209619311424
-0.104883870325
0.30511956652
0.181971729101
-0.268612745081
11054.3703386
0.274124697686
-0.279985992261
-0.0244029032555
0.0422977663077
0.2758320767
-0.252619097321
-0.278937565196
0.0127067271475
-0.289310875212
8617.92666833
-0.0994169116717
0.269829644126
-0.202879655243
0.289375468124
0.106397342802
0.237130685642
-0.0666173693466
0.30809235995
0.296323076723
9563.01479518
0.0941532830919
-0.270557672068
0.100017792022
0.013574278286
-0.246094004417
-0.0977979220932
-0.207914295233
-0.0247938753034
0.0690713424757
5191.19676399
-0.0602256305966
-0.269631702227
-0.243968778942
0.0785517481518
-0.238514113654
0.199758545055
-0.00110686797007
-0.262272452705
-0.132247450771
429.985939725
-0.302342111516
-0.178395560678
0.0481787936353
0.0706305862983
-0.082098486961
0.304895031642
0.0939451377153
0.182599322835
0.233125606265
51.1529226629
-0.187335080858
-0.190032449454
0.0757813204537
-0.312177736391
0.262228851075
0.109783684206
-0.175870675516
0.249283531894
-0.0344465910832
-0.304168264502
0.013517096647
0.314382653579
0.182415383267
0.287122968799
-0.0780051618122
0.267447380537
0.269008936453
0.315792770105
-0.310349016529
-0.155592613137
0.00834452251299
0.105248118837
-0.0244813914068
0.0961245797699
-0.223514706106
-0.107261054528
-0.0376156724363
-0.222907405184
-0.0277730559215
24.9072636677
0.241868988211
0.0460047790288
-0.113366424189
-0.269628357005
0.214785553888
-0.0428125062373
0.237369395171
-0.111779777349
-0.128442565201
37.9278742281
-0.250322529494
0.0146032667834
-0.140216254848
-0.0573467667132
-0.264198901148
0.0258842848719
-0.185952356959
-0.174020271552
0.0357687561008
904.622959992
0.0677076303768
0.216993347547
0.0956429720411
-0.0183921778097
-0.275286746921
-0.240283198809
0.0750403738188
0.0680010132509
0.155641819053
3906.85851605
0.190010043845
-0.150164577608
0.229732922413
-0.308236653318
-0.037243648204
0.0471073308674
-0.275700811359
0.278057069601
-0.122038445055
6116.91304042
0.134214635645
0.00804516123665
0.0323159781086
0.120284400029
0.233645333345
-0.273741575119
0.23496468939
-0.05210142204
0.116691474978
4750.98105675
-0.0630374945128
-0.223460367712
-0.012581228855
-0.261096831908
-0.270049500977
-0.116843952059
0.120615561192
0.151147003931
-0.296447362787
12384.5552787
0.110640015011
0.0161375806404
0.0895145940108
-0.249698941614
-0.24724977244
-0.244546190557
-0.19451429525
0.313486490895
-0.22832074394
23883.1724412
-0.149550774276
-0.288878230788
-0.10304779534
-0.172689061678
-0.0339761985235
0.284759776306
-0.167880197747
0.0794796637087
-0.22066161451
24172.6030739
0.231776212606
-0.211951687084
0.223475718168
-0.0530002231219
-0.0107298572733
0.2035626087
-0.239535371723
0.117378751021
0.0584606375814
9912.66263458
0.0875519131666
0.205666991985
0.194762578723
-0.0570557134894
0.295574807566
0.204498996878
0.0271521813036
-0.00584623597752
0.304934818069
8703.42925024
-0.0839696420258
-0.228941799671
-0.253242700009
0.249805598741
0.133973610714
-0.231831876217
0.279988487329
-0.139134061337
-0.24439929827
17170.3971358
0.0733950296486
0.00201435613647
-0.202937031127
-0.0950793138683
-0.0937965301324
-0.162294603438
0.00739678887396
-0.225997746098
0.161944276721
23467.2483652
-0.279760803002
-0.189158783842
0.0636744790352
0.0426941289934
0.1945488662
0.101299344234
-0.0360342276529
-0.255255192916
0.252026531034
40569.1667791
0.124077614408
-0.103023345563
0.208871403229
-0.3119215445
0.133720412131
-0.31527816965
-0.0716666867143
-0.251846600353
0.0777687153913
32145.8848769
0.253904568191
-0.207958461584
-0.0362545979406
-0.0693847352831
0.288979484597
0.202580629188
-0.0561415460289
-0.138128489416
-0.0382204502861
5350.67235591
-0.155538925678
-0.144410908464
0.055423567899
0.144710275523
-0.129260335347
0.202037645989
0.24910255275
0.183487231583
-0.138647178261
-6754.09050502
0.0191233612627
-0.171514234306
0.281054530389
-0.0298069011255
0.0984411457159
-0.308360160141
-0.295780796478
0.207394132411
0.287244890907
-2250.82575729
-0.0264685031916
-0.228820878432
0.233862391556
-0.161881218978
-0.200332573448
9.43381446366e-05
0.118591569271
-0.146263692724
0.271925092871
10366.1009845
-0.138852552291
0.0213961324136
-0.111910350733
-0.195207272259
-0.213295773225
-0.229717795049
-0.175156439666
-0.0368009191252
-0.298789760188
16233.8986524
0.194531961886
-0.275254690422
0.191225475991
-0.021387671879
0.0187883202568
-0.291991910618
0.24189587113
-0.0422487201525
-0.0958483689308
13508.0015514
-0.234697409072
0.0478994553225
-0.166715221825
-0.185434876249
-0.245905154644
-0.203840637008
0.184799063069
-0.126904005852
0.177406002964
8760.6204041
0.164978642296
-0.198919772472
-0.124445464874
-0.0140385526905
-0.0883347249393
-0.288463657824
0.0914579429441
-0.0966383509164
-0.281680071604
7056.12341408
-0.264658126051
-0.290185789097
0.0683344914119
-0.264278915762
0.0706408454117
0.046089787299
-0.0994112832362
-0.195752973508
0.106403466174
3179.81057048
0.287587293649
-0.0907691434298
0.195017617328
0.0489881956097
0.00714084417848
0.0447363217313
-0.072742671329
-0.234072986725
-0.212249891532
2180.37713397
-0.0231219917833
0.127059055933
0.0241155139026
-0.276039069799
-0.0792829180701
0.0436189864706
-0.212328252127
0.286396964453
0.128817402435
609.016055771
-0.10899983485
-0.0758862866491
-0.0686634657753
-0.29462797856
0.178462189857
0.213133426805
-0.0211596635526
0.0833519444914
0.229257581983
0.184069237829
0.0860835589055
-0.145308695612
0.132401854691
-0.267871137762
0.182920497834
0.00444379598441
-0.136303094085
0.302162155942
-0.183901820697
-0.29349812357
-0.148369968221
-0.235159502
0.23023832878
-0.289793192537
-0.284136028004
-0.170824810916
-0.257884062743
-0.245766683083
-0.263373727124
52.1946503141
-0.28702029321
-0.00744948683086
0.1817097654
0.291439488975
-0.163263472309
-0.280679401562
-0.284046265648
0.0588721159912
0.0340609158366
-104.652967078
0.106833950932
-0.147959018355
0.267918447115
-0.0262984342398
0.0711824498422
0.223941867536
-0.0202398949322
0.133664926826
-0.132981254631
223.014319607
0.25768754346
0.107922129221
-0.282862811636
-0.115626731926
-0.0992991099194
0.225935247543
-0.0676239201362
0.0339404650885
0.0990100688762
2029.33028402
-0.271952217966
-0.112989838829
0.253624922695
-0.252766724248
0.239599602362
0.0303407410716
-0.0982068938138
0.0655901502787
-0.0803518324727
-967.510062814
0.100670214515
-0.134446164153
0.301035284392
0.099199595988
-0.285184729751
0.121586995903
-0.241782811236
-0.0174939913925
0.287025138264
-2265.45128133
0.0349357561942
0.059822405689
-0.0208649642557
0.0862998351375
-0.17919172822
0.130346692076
-0.267530668288
0.217057656288
0.0108436064444
7596.91841457
0.283843663042
-0.0587715487131
-0.296272514189
-0.206254527323
0.0220194278322
0.081532368128
0.028703579128
0.313331432177
-0.0400062264808
26692.1086128
-0.283407717461
-0.238310668573
-0.24039704326
0.0539760394837
-0.291716232297
-0.25644825146
0.30845303998
0.247685908792
-0.073602817126
33917.7977388
-0.00274726469148
-0.144521148527
0.200203730777
0.116259966526
-0.306651786266
0.289175380945
0.113594475159
0.267620019723
-0.143120702563
12599.8229578
0.167035314176
0.129841615191
0.118749952323
0.175975307647
-0.0237315169064
-0.00726577821314
-0.267510017263
-0.181461744147
0.0115751125579
6976.85073687
0.0397433146947
0.0352050260867
-0.163510848978
-0.231216577004
0.179401056072
0.217011962496
-0.21620910704
0.207407655469
-0.112161509528
4160.67351717
-0.282952835694
0.0613458835431
-0.0864307446379
-0.234127097157
-0.131718086683
-0.0435806588884
0.170468533084
0.0212816289855
0.0738258098949
15448.2289558
-0.184069791978
-0.0886425201899
0.209245046901
-0.255101280682
0.107001207445
0.306390687486
0.101807750702
0.196009965504
-0.0864766644301
25403.7599273
0.0103833834615
-0.278725007327
0.242304480292
0.0207218804945
0.0776505961568
0.227452383105
-0.287241457114
0.0210772568113
-0.14313694254
16903.911825
0.102053262059
-0.167963122414
-0.270081764529
-0.0707820457813
0.0622233976362
0.195227913134
0.180186538871
0.170339918586
-0.260146943079
6228.46278163
0.0364391222731
-0.153943502526
-0.298484644584
-0.296390911332
-0.229555974001
-0.277815943885
-0.281013405941
-0.170047110396
0.0598418967058
3862.24418334
0.187439894642
-0.246426285171
0.141561380829
-0.259885892625
0.0995403264528
0.163560488255
0.206091326223
-0.105216342317
-0.304248984096
15492.135132
0.248073455988
-0.0565303550399
-0.159683328596
0.0778223463585
0.203568543649
0.315709709482
0.0859774313101
-0.141656831742
0.11951627862
23732.6511211
0.143573573261
0.116679028979
0.258496433404
-0.0953399480477
-0.19837692655
-0.258332950289
0.203697676119
-0.225057313152
-0.00672316496784
19986.0526689
0.183672454081
-0.0454203459298
-0.261709473578
0.108633067963
-0.261314415137
0.120306578511
0.222305637994
0.109939329723
0.259027476334
12684.7905421
0.253166000192
0.0700427086601
-0.0350413311371
-0.124757573918
0.0553606111599
-0.0562404617144
0.164237078351
0.0236715367105
0.187086964418
7409.0335965
-0.0336150504822
-0.108069528915
0.146581376127
0.259906315983
0.035205838777
0.0574121957663
-0.106492387104
-0.171129219327
-0.0920269785902
3070.23168564
-0.260471598919
-0.206112239339
0.275354841108
-0.173544067225
0.0849637587824
-0.0204100404502
-0.240818225363
-0.202199072607
0.0597979619308
2576.87809163
-0.207620567337
0.244083981525
-0.0818437208302
0.222108188517
-0.215095128373
0.153720493442
0.00190741121846
0.0783432711986
0.0808759262248
2753.40335677
-0.067197789853
-0.164911990858
-0.213826698159
0.296471145045
0.168354044355
-0.0878140180829
0.138614706185
-0.148404827753
0.0369344128917
377.552920882
0.10779967797
0.290013537265
-0.175986795701
0.175733130456
-0.109391080188
-0.256816095615
0.0129428615869
-0.130393871016
0.0458476019389
0.204900310133
0.176641504124
0.296854928518
0.202618951381
0.197058961498
-0.304602144658
0.169728242547
-0.0234736799931
-0.187280462634
-0.255461950355
-1.36507228079
0.156032779783
0.105613743239
-0.0454260759069
-0.309259430132
-0.0261058080666
-0.280095419902
0.19432875402
-0.261432560251
0.217195369024
30.4934038971
-0.00210280449746
0.206973075586
0.21753206267
-0.232707187388
-0.00146260363444
0.0962547672712
-0.133262809709
-0.0540992041338
-0.0372214678301
-991.792755882
-0.201141617245
-0.273738250795
-0.231649878544
-0.0193335262164
-0.304369048655
0.100822687378
-0.0426641690328
0.26846586368
0.279687305349
-1485.24103573
0.132691186081
0.236556667994
0.0997524331842
-0.264615791168
0.131722213999
-0.15569457668
-0.282456106371
0.286876756589
0.014781222439
34.0454133129
-0.232025706439
-0.126106749639
0.27702181936
-0.130834505663
-0.134192996743
0.282851906176
0.155802312484
-0.285464727184
-0.18500047552
-1473.10720745
0.138816449618
-0.196168224547
0.0631048915852
0.21450820462
0.312866446896
-0.0822891145055
0.232868131956
-0.30774432098
-0.0732684697742
-7546.6185456
0.243565640189
0.191674654256
-0.0770259466193
0.218495123551
0.188259651303
0.160696034342
0.0606572576594
0.121037544821
0.0443060400934
-2852.75845547
-0.248961323628
-0.1062255771
-0.0367699117973
0.307656704869
-0.288452906597
0.161141897426
0.0715173390197
-0.31532165595
-0.0935633420799
8863.74730863
0.0133460502899
-0.0159191240579
0.0553815030764
0.0715919199954
-0.253863814166
-0.0601697170965
-0.0029891359633
-0.16020077334
-0.0897198035072
10320.2858148
0.302894003742
0.212686197704
0.261708889263
0.145004483637
0.24413189815
-0.222749977612
-0.138169849144
0.205900481197
-0.0471526187383
-3081.19296814
0.244741935093
-0.107371735061
0.257371202291
0.313901832637
0.197034774593
-0.203501106105
0.177198303822
-0.307060140956
-0.156910648675
-7165.40615728
0.180945117743
0.265730837558
-0.287310157526
0.0908663508172
0.165821444155
0.204152110122
0.0789146900715
-0.116937495284
0.252914107521
-7888.91073663
0.170110469868
-0.165600004805
0.102107599726
-0.130579283906
0.0827025408325
0.287555870819
-0.00962934743744
0.09492199484
-0.136546132916
6223.41616091
0.261779641429
0.0584857172189
-0.0500747101689
0.127144676249
-0.236711243582
0.052122780079
-0.144094566651
0.0436489917088
-0.250864968101
11945.6010868
-0.118560997652
0.135852913956
0.24793169179
-0.215143472657
-0.135289174349
0.0879587245818
-0.0934947030274
-0.075094790544
0.240867084026
7262.41344027
0.289340079186
0.172077036381
0.0102383653461
0.135979412842
0.311535217657
-0.135308877037
0.238763639764
-0.174835380078
0.232159389728
3409.20123425
-0.25814331164
0.0556345464625
-0.131975238058
0.246815430875
0.148806832219
-0.0206089134214
-0.168155475971
0.0776609053254
-0.308423073301
13919.2837418
-0.203110890596
0.102398045319
-0.20715158376
-0.0379805166267
-0.0767174375625
0.145809623527
0.211254179783
0.0495611877008
0.0785475998607
27234.9343929
-0.295801041111
0.137815885603
0.120227072917
-0.088617819222
-0.0434591701114
0.168883926515
-0.137540695715
0.273789787075
0.132431454778
27199.8045666
0.263978637615
0.0989060255457
-0.177593786492
0.244920740283
0.234442181533
0.00739468875696
0.147929977846
0.107018785387
0.123375671279
16132.9336652
0.0527288617146
-0.0589799651651
0.224442295305
0.0670728591288
0.240040318872
-0.212207953043
0.122353638716
-0.221393214923
0.245522589042
10937.6570661
-0.127260474255
-0.0952888349677
-0.0712811086143
0.185903581768
-0.174139449506
-0.15891751665
0.308061163004
-0.0454524591448
0.165809975872
6087.70971488
0.0722649316356
0.0130515637885
0.190088651331
-0.128106035609
-0.120397182605
0.23486484503
-0.281212315818
0.02596421634
0.138598250424
2609.73124708
0.281874205361
0.209831188678
-0.0644303121388
-0.232958808712
-0.0200807241322
-0.27394264503
-0.160278358803
0.109563218482
-0.188296525864
1317.60376234
-0.298590401005
-0.1849415711
0.194432744611
-0.315479109481
-0.153921902513
-0.255848274555
0.136558906438
0.312664987193
-0.203761817346
1337.44375233
0.15505112221
-0.223108917806
-0.208569049007
0.146067749376
-0.218333905938
0.197335886269
0.0920881976678
-0.0750258695004
-0.194825495319
-180.27153805
-0.225475182206
-0.147988070489
0.0597963093131
-0.0656176411316
0.0950877646294
0.0169290389133
0.0267242990645
0.238378689745
-0.229646519386
-0.0698657129007
-0.126004459829
-0.233465543438
-0.0467225752552
0.0901442028393
0.188296336896
-0.0681727439996
-0.0804679372335
-0.0691721006211
0.313098932346
-1.73157347351
0.150841476651
-0.265697203976
-0.0166772415797
0.313841260232
-0.285204542838
-0.0842831419392
0.170784354363
-0.0861077394796
-0.0124771425798
0.986807452076
0.0317792068967
-0.0255901696758
0.0998324580879
0.268494859728
0.301858033195
0.223886165835
0.117254371799
0.14659601445
0.0402666181428
-1021.87604367
-0.0792056662678
0.155976364961
0.204299475577
0.0337017435729
-0.174327347965
0.160516545905
-0.248746552325
0.0725502160123
-0.112555098852
-2085.98553256
0.290274699074
0.0597369520537
-0.272836814171
0.28785002036
0.175805010563
0.253473549158
0.241507533372
-0.19048348011
-0.290880221836
-1408.16237994
0.285249120523
-0.108277117486
-0.178558582598
0.276545277622
-0.212495113342
-0.222633545489
-0.0120557874654
-0.0677632468962
0.169916622235
-339.614335683
-0.249235181633
0.255658889233
0.136761908765
-0.00370599466647
0.168497474078
0.235276328599
0.152191519785
0.120793422155
-0.00731236048728
-5375.86173617
-0.0533099743854
0.125435782694
0.289491149471
0.263913853022
-0.280587630908
-0.00170251108163
0.0193162691778
-0.225142640112
0.203047739896
-7888.57430604
-0.0138629728677
-0.0763087991439
0.31404200845
-0.157751706922
-0.224590339188
-0.172971808991
0.26642129754
-0.289246059275
-0.0899849107228
-6393.68159503
0.0637336783011
0.258640127999
-0.176135241028
0.0974640192112
-0.0149244558792
-0.278449321704
-0.10285205548
0.117876063138
-0.299694615422
-10057.9657162
0.270487244974
-0.195341720425
-0.0287530415245
0.045521183389
-0.266374967937
-0.0922156731404
0.202737059184
0.0956510154785
-0.136906900715
-11303.3560775
0.0982261232144
-0.025990209334
-0.275799862799
-0.0999108453827
0.0859381291613
-0.311615399857
0.0517343724713
-0.0110387126118
0.150881489445
-19133.3250139
0.0106066139661
-0.283531439302
0.0337650294855
-0.210665305592
-0.0782159487748
0.218471908106
0.0593821742605
-0.23475599449
0.292966585197
-18486.3389089
-0.254751885817
0.277015150508
0.0106762345084
0.152223463439
0.265202978698
-0.101458761354
-0.253296729772
0.155220259705
-0.287993995023
-6504.64203829
-0.21936628299
0.00330523327238
0.303343437808
0.262871774246
-0.315000241608
0.0383447699405
-0.168224838982
0.0869291854286
-0.110102309566
243.495641481
-0.311043017779
0.0233619292693
0.0760065239483
0.0714848269813
-0.0111710147064
0.119455600999
-0.205319646119
0.240731377895
0.262231709821
6628.74424813
-0.307754654721
0.0331499564033
0.234302199686
0.158380592985
-0.185569879746
0.116017593231
-0.297511939465
-0.181812753487
0.00354983443901
14160.8947318
0.315969963194
-0.249462240798
-0.267345225659
0.263353181475
0.205551825615
0.156260693965
-0.298023406766
-0.117953331124
-0.20281199593
18522.8580852
0.121455322822
0.19713494416
0.286484000559
-0.301234910254
0.0646608962901
0.181301197572
-0.108060919138
0.0486710964524
-0.156163026196
20843.6381278
0.245416587934
-0.262525071422
-0.153205764261
0.053489898811
0.134341680191
0.0896214665836
0.207938795065
-0.127996985434
0.124361179142
18396.4769068
0.106118853224
-0.262644846132
0.279537835339
-0.0564447457056
-0.104473803565
0.151081383044
0.215033294591
-0.0574594174214
-0.134687986046
11593.0545777
-0.233332013471
0.240126361195
0.0286140735744
-0.0221113126893
0.0868932687854
0.00791333667819
-0.282705679016
0.0392567854299
0.205244600069
6577.63482664
0.0897444574915
0.0453578087632
-0.307125009513
0.00175655036424
-0.225331491369
-0.103667941565
-0.101572400484
0.102492589325
0.0863257490481
2259.83251471
0.014468893147
0.229028678682
0.146078828098
-0.0527286192264
-0.220115191972
0.280788528544
0.144541940199
0.150255804578
-0.124006426127
746.349815038
-0.311445473245
-0.0153925346673
0.176433621632
0.105292909973
