-0.900021542699
-9.48072754955
72.5884204282
-51.2748686119
15.4472728945
1.74818941434
0.883334626923
18.2020765888
11.397439414
-59.2317106492
-72.4620942588
95.5081430907
-10.7517275232
48.1110364649
10.0161334655
24.0287426735
-25.0377094535
-2.95017128687
-5.69208319644
-59.3785246806
25.749238852
70.0252674622
79.772976458
-71.2184841813
8.20362082001
-22.5955121592
-4.59670355052
17.6872669325
-34.9058410677
-67.7592972152
15.0184596783
19.169209878
-17.5305876251
71.6975249317
-29.8406413353
17.0349169295
-75.7612611717
17.8273514169
1.23602719051
-19.577221012
-62.8693932364
-15.4695464071
9.30335593183
-1.87982330832
39.1265216396
-19.3055093473
64.5695675154
-17.0044346906
-16.4851611959
20.5120110835
-16.9078928896
-30.3031145171
5.55053818914
-18.714358704
55.6662114205
9.50650051496
-9.39021690503
6.86366833935
16.5554288243
-20.0646111315
7.22208964399
-44.3033101602
76.4362970215
28.0559499552
21.8180508811
-19.6129260932
-42.2988709267
7.40624558274
5.03568824244
-40.4166981695
-8.4079377016
4.74688325392
52.4407354363
17.0710518248
-21.9332053301
12.5358880021
35.5838580742
-43.8080188328
15.5228878135
-64.5890036356
-49.0001862574
-56.5806395268
-10.0883680191
-19.8301402468
75.1955928427
-3.6882876001
-50.4624931358
80.1053394109
6.23744219298
27.9186462788
-18.1266647237
-1.92758963485
34.2140777559
40.9383303319
-5.03424685916
5.55384812388
-19.7274077391
22.7730633306
-4.70852764305
-52.6881923768
